tree
version=v4
num_class=3
num_tree_per_iteration=3
label_index=0
max_feature_idx=38
objective=multiclass num_class:3
feature_names=happiness self_rated_health freedom_of_choice living_standard_vs_parents financial_satisfaction went_without_food went_without_medicine went_without_cash went_without_shelter importance_family importance_friends importance_work importance_religion goal_make_parents_proud duty_care_parents general_trust trust_family trust_neighborhood trust_known_people trust_strangers trust_other_religions trust_other_nationalities unsafe_at_home confidence_police confidence_courts confidence_government importance_leisure_time teach_responsibility teach_determination teach_religion work_as_duty safety_score hardship_score family_value_score religiosity_score social_trust_score satisfaction_factor_score education_value_score personal_aspiration_score
feature_infos=[1:4] [1:5] [1:10] [1:3] [1:10] [1:4] [1:4] [1:4] [1:4] [1:4] [1:4] [1:4] [1:4] [1:4] [1:5] [1:2] [1:4] [1:4] [1:4] [1:4] [1:4] [1:4] [1:4] [1:4] [1:4] [1:4] [1:4] [1:2] [1:2] [1:2] [1:5] [0:3] [1:4] [1:4.25] [1:3] [1:3.6666666666666665] [1:7.25] [1:3] [1:3.75]
tree_sizes=3289 3329 3087 3393 3420 3178 3396 3423 3188 3386 3421 3082 3291 3426 3184 3393 3438 3083 3289 3424 3086 3399 3437 3187 3288 3439 3092 3396 3422 3184 3291 3428 3187 3391 3439 3083 3291 3429 3189 3296 3435 3185 3302 3432 3085 3406 3437 3190 3394 3431 3085 3199 3437 3203 3405 3443 3196 3401 3440 3210 3280 3448 3197 3408 3438 3195 3418 3440 3198 3410 3448 3208 3310 3442 3406 3410 3435 3212 3312 3439 3209 3415 3448 3404 3195 3449 3101 3321 3444 3425 3416 3452 3419 3410 3441 3426 3309 3440 3423 3303 3439 3437 3315 3443 3430 3208 3445 3429 3413 3448 3316 3321 3342 3429 3204 3347 3309 3310 3434 3433 3322 3346 3430 3317 3442 3206 3421 3116 3435 3316 3018 3208 3417 3120 3429 3226 2910 3422 3428 2806 3412 3317 2808 3314 3212 2798 3443 3436 2795 3419 3210 2800 3103 3316 2813 3315 3322 2813 3213 3107 3249 3437 3210 2807 3006 3006 3239 3322 3115 2690 3425 3006 3025 3316 3223 2808 3421 2699 2699 3437 3013 2808 3431 3103 3019 3002 2683 2696 3431 3213 3027 3425 3013 2811 3226 2696 3134 3009 3108 2699 3425 2805 3024 3226 2694 3031 3317 2903 2905 3446 3015 3017 3329 3127 3024 3314 2911 2808 3323 3131 2801 3333 3021 3020 3220 3118 2906 3325 2808 3028 3224 3114 2806 3324 2904 2705 3433 3019 2059 3331 3018 2065 3233 3232 2697 3225 2602 2064 3337 3231 2807 3231 3013 2070 3341 2598 2696 3445 2908 2492 3443 2605 2166 3336 3223 2498 3436 3121 2173 3445 3335 2370 3447 3332 2158 3425 3007 2492 3452 3334 1952 3444 3330 2378 3437 3329 1956 3440 3230 2382 3330 3336 2073 3134 3435 2589 3439 3225 1851 3242 3220 2372 2919 3332 1848 3117 3329 1854 3430 3441 2382 3123 3333 1847 3017 3337 2699 3433 2791 2377 3126 3230 1635 3340 3231 1636 3338 3235 2380 3444 3448 1534 3436 3217 2804 3224 3219 2385 3433 2491 1637 3122 2592 2380 3220 3109 1537 3129 2698 2802 3130 3012 2379 3323 2710 1635 3441 3231 2063 3119 2606 1634 3232 3112 2485 3447 3112 2166 3234 3444 1519 3226 3430 1639 3333 3327 2168 3325 2798 1633 3321 3341 2059 3339 3446 1854 3007 2789 1627 3233 3124 2059 3225 3450 1522 3089 2790 1843 3109 2804 2593 3338 2792 1625 3227 3446 1526 3234 3344 1846 3333 3106 2168 2921 2692 1521 3022 3447 2465 3233 3215 1419 3221 3138 2590 3439 2698 2071 3327 3456 1853 2907 3115 1954 3237 2696 1530 3323 3447 2595 2912 3215 2370 3331 3454 1748 2910 2696 1847 3341 3139 3026 2803 3013 2075 3009 2705 1523 2905 3457 1636 2919 3119 2702 2914 2694 1855 2808 2692 2804 3017 3456 2260 3009 2706 1636 2910 2710 1855 3340 2065 2262 3029 2808 1966 2902 2588 1635 2707 3008 3328 3014 2174 2069 3116 3228 1857 3022 3233 2063 2819 2063 2251 3220 2712 1639 2597 2159 2809 3020 3012 1640 3134 2179 2075 2701 3224 3322 2798 2057 2381 3017 3226 2065 3014 2812 1742 2815 2061 1637 2810 3012 2906 3010 2054 2812 2819 2580 2268 2703 2051 2904 2911 3452 1540 2801 2053 2468 2922 2056 2590 2801 3012 3429 2805 2475 2261 2708 3446 3438 2916 2051 2715 3219 3444 2264 2906 2051 2587 3130 3463 2898 2808 2057 2900 2490 3445 3120 2700 3123 2577 3229 3450 2057 2904 2044 2281 2817 2999 2694 2680 1953 1431 3136 3450 1322 2813 1960 1432 2596

Tree=0
num_leaves=31
num_cat=0
split_feature=4 2 0 2 0 4 0 0 0 8 4 2 2 12 2 32 10 22 34 26 0 5 6 30 21 4 5 10 32 4
split_gain=1120.53 310.193 127.822 98.915 56.6243 34.4869 30.0864 27.761 21.8546 14.7751 14.3799 13.9425 12.5171 11.9703 8.87885 6.6693 6.27708 5.87239 6.48547 5.66926 4.8855 4.66317 4.8281 4.28486 4.18278 3.37921 3.26298 2.62893 2.56604 1.69361
threshold=6.5000000000000009 6.5000000000000009 2.5000000000000004 6.5000000000000009 2.5000000000000004 5.5000000000000009 2.5000000000000004 2.5000000000000004 1.5000000000000002 3.5000000000000004 4.5000000000000009 7.5000000000000009 7.5000000000000009 3.5000000000000004 7.5000000000000009 2.8750000000000004 1.5000000000000002 3.5000000000000004 1.7500000000000002 2.5000000000000004 1.5000000000000002 3.5000000000000004 2.5000000000000004 2.5000000000000004 2.5000000000000004 5.5000000000000009 3.5000000000000004 1.5000000000000002 3.1250000000000004 7.5000000000000009
decision_type=2 2 2 2 2 2 2 2 2 2 2 2 2 2 2 2 2 2 2 2 2 2 2 2 2 2 2 2 2 2
left_child=1 4 5 6 8 12 15 14 9 -1 27 -7 -3 -10 19 23 -12 18 -8 -5 -17 22 -9 -2 -23 -6 -16 -4 -27 -19
right_child=3 2 10 7 25 11 17 21 13 -11 16 -13 -14 -15 26 20 -18 29 -20 -21 -22 24 -24 -25 -26 28 -28 -29 -30 -31
leaf_value=-1.0119381737378159 -1.0485201314877577 -1.0333172399553143 -1.0111813056464378 -1.0682801496109546 -0.99820282743918909 -1.0467986275936427 -1.0578319025513792 -1.0452684019099852 -1.0133321471547674 -1.0361977878246194 -1.0396852435783377 -1.0628602589257348 -1.045334763738103 -1.0292826264332429 -1.0696317926341603 -1.0626628213738596 -1.0177614241551536 -1.0046217821878276 -1.0192545652878042 -1.0527009266591796 -1.0528984445412941 -1.0308246728552277 -1.0749535461199737 -1.0237569600877972 -1.0524597269377514 -1.0243442289747526 -1.074439290965006 -0.99931254230199529 -1.0033493662660904 -1.0229127610627984
leaf_weight=30.069467782974243 21.527005344629291 105.24313724040985 29.727769285440445 173.58283674716949 164.35697731375694 75.515367954969406 7.5173669457435599 9.2258594334125537 317.43790420889854 90.891800343990326 18.110020369291306 136.67939901351929 301.37807482481003 48.862885147333145 158.20640435814857 71.414985984563828 33.486452758312225 10.250954926013948 8.2007639408111555 23.918894827365875 130.18712756037712 14.693035393953322 10.592653423547743 8.8841609358787519 17.768321871757507 7.8590654432773617 645.46846184134483 38.611930221319199 15.718130886554716 8.2007639408111555
leaf_count=88 63 308 87 508 481 221 22 27 929 266 53 400 882 143 463 209 98 30 24 70 381 43 31 26 52 23 1889 113 46 24
internal_value=-1.04697 -1.02841 -1.04185 -1.06685 -1.01372 -1.04734 -1.05051 -1.07098 -1.01911 -1.03017 -1.0135 -1.05714 -1.04222 -1.01546 -1.07209 -1.05438 -1.02546 -1.02423 -1.0377 -1.06639 -1.05636 -1.04967 -1.06113 -1.04129 -1.04267 -0.999726 -1.07349 -1.00448 -1.01035 -1.01275
internal_weight=2733.59 1413.95 738.752 1319.64 675.196 618.816 266.183 1053.46 487.262 120.961 119.936 212.195 406.621 366.301 1001.18 232.013 51.5965 34.1698 15.7181 197.502 201.602 52.2799 19.8185 30.4112 32.4614 187.934 803.675 68.3397 23.5772 18.4517
internal_count=8000 4138 2162 3862 1976 1811 779 3083 1426 354 351 621 1190 1072 2930 679 151 100 46 578 590 153 58 89 95 550 2352 200 69 54
is_linear=0
shrinkage=1


Tree=1
num_leaves=31
num_cat=0
split_feature=4 4 2 2 2 0 2 34 4 0 0 32 2 2 2 4 2 4 18 4 32 0 12 2 10 12 3 4 35 38
split_gain=272.926 330.004 57.9623 90.4749 55.2689 52.1972 36.515 44.6031 31.7565 30.7758 29.54 22.0702 18.1925 18.0129 9.31383 7.16267 8.21801 7.12635 7.08133 6.42183 6.37399 6.02551 5.66059 3.81367 2.99272 2.76742 1.91459 1.7478 1.49379 1.48035
threshold=5.5000000000000009 8.5000000000000018 8.5000000000000018 6.5000000000000009 8.5000000000000018 2.5000000000000004 5.5000000000000009 1.7500000000000002 6.5000000000000009 1.5000000000000002 1.5000000000000002 2.8750000000000004 9.5000000000000018 5.5000000000000009 9.5000000000000018 4.5000000000000009 6.5000000000000009 9.5000000000000018 2.5000000000000004 9.5000000000000018 3.6250000000000004 2.5000000000000004 3.5000000000000004 9.5000000000000018 1.5000000000000002 3.5000000000000004 1.5000000000000002 1.5000000000000002 2.4166666666666674 1.6250000000000002
decision_type=2 2 2 2 2 2 2 2 2 2 2 2 2 2 2 2 2 2 2 2 2 2 2 2 2 2 2 2 2 2
left_child=5 2 3 8 10 6 18 12 -2 22 19 -5 -8 -12 -9 27 29 26 25 -3 -20 -11 -4 -19 -18 -1 -6 -7 -29 -17
right_child=1 4 9 11 17 15 7 14 -10 21 13 -13 -14 -15 -16 16 24 23 20 -21 -22 -23 -24 -25 -26 -27 -28 28 -30 -31
leaf_value=-1.0034631159445369 -0.98587130697104486 -0.98707596645210283 -0.99124514367881855 -0.97219709156222445 -0.99538876157886502 -1.0130180459495646 -0.98764716047912726 -0.97261726655975911 -0.96769674577904263 -0.968641976280464 -0.99311774022980115 -0.95429089603781858 -1.0029910055448563 -0.96402748645179182 -0.98841403160512975 -0.99928482487103687 -0.97428162198168278 -0.99626738623194544 -0.99703872811002159 -1.0035644384354951 -0.97746283306358728 -0.98600187333606748 -0.97401725540977946 -1.009673895467526 -0.99352052514831435 -0.99206785822908627 -1.0054087830462499 -1.0107060150048783 -1.0043087731860252 -1.0109561462784757
leaf_weight=182.69032001495361 153.1788067817688 37.240719079971313 120.15401816368103 70.265507698059082 66.049577236175537 62.184974312782288 182.33899247646332 177.06907939910889 198.8513867855072 177.42040693759918 26.700892925262451 523.47803235054016 112.42481231689453 67.806214928627014 41.456649541854858 15.809739232063292 11.945136308670046 21.43097984790802 51.645148158073425 49.537182927131653 21.079652309417725 20.025669693946838 20.025669693946838 175.31244170665741 18.620359539985657 21.43097984790802 23.187617540359497 55.86107861995697 79.751351237297058 25.646910309791565
leaf_count=520 436 106 342 200 188 177 519 504 566 505 76 1490 320 193 118 45 34 61 147 141 60 57 57 499 53 61 66 159 227 73
internal_value=-0.982497 -0.975223 -0.967364 -0.963555 -0.996809 -0.994512 -0.990621 -0.985885 -0.975605 -0.978034 -0.983851 -0.95641 -0.993499 -0.972246 -0.975614 -1.0059 -0.997804 -1.00502 -0.999403 -0.996488 -0.991365 -0.970403 -0.988784 -1.00821 -0.986002 -1.00227 -0.997992 -1.00885 -1.00694 -1.00651
internal_weight=2810.62 1750.67 1283.4 945.774 467.266 1059.96 790.136 513.29 352.03 337.626 181.285 593.744 294.764 94.5071 218.526 269.82 72.0221 285.981 276.846 86.7779 72.7248 197.446 140.18 196.743 30.5655 204.121 89.2372 197.797 135.612 41.4566
internal_count=8000 4983 3653 2692 1330 3017 2249 1461 1002 961 516 1690 839 269 622 768 205 814 788 247 207 562 399 560 87 581 254 563 386 118
is_linear=0
shrinkage=1


Tree=2
num_leaves=29
num_cat=0
split_feature=4 2 2 0 0 0 2 2 4 0 4 0 1 35 22 22 10 34 34 18 22 0 12 4 4 12 20 33
split_gain=1031.95 392.784 124.915 94.6275 71.6931 53.9067 20.2003 16.0813 13.9812 13.1321 10.8503 9.66011 8.93134 8.68205 7.57266 7.01046 10.2387 6.34517 5.77415 5.51129 5.13423 5.11961 5.39182 5.0694 4.92688 4.66678 3.10979 2.88088
threshold=8.5000000000000018 8.5000000000000018 8.5000000000000018 1.5000000000000002 1.5000000000000002 1.5000000000000002 7.5000000000000009 7.5000000000000009 6.5000000000000009 2.5000000000000004 9.5000000000000018 2.5000000000000004 1.5000000000000002 3.0833333333333335 3.5000000000000004 3.5000000000000004 1.5000000000000002 1.7500000000000002 1.2500000000000002 1.5000000000000002 2.5000000000000004 1.5000000000000002 3.5000000000000004 7.5000000000000009 9.5000000000000018 2.5000000000000004 2.5000000000000004 2.1250000000000004
decision_type=2 2 2 2 2 2 2 2 2 2 2 2 2 2 2 2 2 2 2 2 2 2 2 2 2 2 2 2
left_child=1 4 5 8 7 15 17 14 19 12 27 21 -5 -11 -1 16 -2 -6 -9 -3 -10 26 -23 -8 -17 -12 -4 -7
right_child=2 3 11 9 6 10 23 18 20 13 25 -13 -14 -15 -16 24 -18 -19 -20 -21 -22 22 -24 -25 -26 -27 -28 -29
leaf_value=-1.3080655171583813 -1.2466569050226104 -1.2571716154121548 -1.2352094380662515 -1.2736330618829248 -1.3118542410317562 -1.2917265872049266 -1.3077910318608954 -1.2745794241840231 -1.2349680954580549 -1.3074529028558104 -1.2638156354495711 -1.2648634378927479 -1.2882542983003771 -1.2792831953250372 -1.2965372763935787 -1.2555626646908433 -1.2898011360403543 -1.3169341551411158 -1.290745053796857 -1.273705499491157 -1.2562270056338365 -1.2363995067894287 -1.2577692256800708 -1.2987428796740434 -1.2372395552999065 -1.2898011360403543 -1.22656767906047 -1.31188881154252
leaf_weight=80.977285265922546 11.055939316749575 23.904733657836914 66.933254241943359 46.01661229133606 416.53998398780823 43.626138925552368 205.2819002866745 27.789252877235413 11.653557658195494 45.717803120613098 20.319023609161381 9.2630842924118024 205.58070945739746 12.549985170364378 139.84269189834595 23.307115316390991 8.964275121688841 472.11848974227905 69.921345949172974 75.299911022186279 83.367758631706238 69.323727607727051 12.549985170364378 76.495147705078125 30.478535413742065 8.964275121688841 85.160613656044006 7.4702292680740348
leaf_count=271 37 80 224 154 1394 146 687 93 39 153 68 31 688 42 468 78 30 1580 234 252 279 232 42 256 102 30 285 25
internal_value=-1.29235 -1.30115 -1.24821 -1.27826 -1.3089 -1.26933 -1.31233 -1.29628 -1.26184 -1.28855 -1.28633 -1.23482 -1.28558 -1.30139 -1.30076 -1.25082 -1.26598 -1.31455 -1.28615 -1.26972 -1.25362 -1.23363 -1.23968 -1.30533 -1.24518 -1.27177 -1.23037 -1.29467
internal_weight=2390.47 1993.06 397.416 504.091 1488.97 154.186 1170.44 318.531 194.226 309.865 80.3797 243.231 251.597 58.2678 220.82 73.8059 20.0202 888.658 97.7106 99.2046 95.0213 233.968 81.8737 281.777 53.7857 29.2833 152.094 51.0964
internal_count=8000 6670 1330 1687 4983 516 3917 1066 650 1037 269 814 842 195 739 247 67 2974 327 332 318 783 274 943 180 98 509 171
is_linear=0
shrinkage=1


Tree=3
num_leaves=31
num_cat=0
split_feature=4 2 0 2 0 4 0 0 0 8 2 4 2 12 2 37 10 26 22 34 0 5 6 26 21 5 4 22 10 4
split_gain=1056.94 284.459 118.668 95.3335 51.0193 32.1819 28.6777 26.8462 20.0911 13.7495 13.4332 12.7397 11.7249 11.0441 8.6056 6.62608 5.83928 5.5345 5.534 6.14743 4.87922 4.5162 4.67833 4.50815 4.02359 3.20949 2.89618 2.47559 2.42897 1.57876
threshold=6.5000000000000009 6.5000000000000009 2.5000000000000004 6.5000000000000009 2.5000000000000004 5.5000000000000009 2.5000000000000004 2.5000000000000004 1.5000000000000002 3.5000000000000004 7.5000000000000009 4.5000000000000009 7.5000000000000009 3.5000000000000004 7.5000000000000009 2.1666666666666674 1.5000000000000002 2.5000000000000004 3.5000000000000004 1.7500000000000002 1.5000000000000002 3.5000000000000004 2.5000000000000004 2.5000000000000004 2.5000000000000004 3.5000000000000004 5.5000000000000009 3.5000000000000004 1.5000000000000002 7.5000000000000009
decision_type=2 2 2 2 2 2 2 2 2 2 2 2 2 2 2 2 2 2 2 2 2 2 2 2 2 2 2 2 2 2
left_child=1 4 5 6 8 12 15 14 9 -1 -7 28 -3 -10 17 23 -13 -5 19 -8 -17 22 -9 -2 -23 -16 -6 -28 -4 -20
right_child=3 2 11 7 26 10 18 21 13 -11 -12 16 -14 -15 25 20 -18 -19 29 -21 -22 24 -24 -25 -26 -27 27 -29 -30 -31
leaf_value=0.033583145095228799 -0.011334380040045767 0.013168678631206594 0.034074158068898568 -0.020914123443111641 0.046336744923320239 0.00029869949608710351 -0.010652551278512827 0.0016599759240643532 0.032199707710198221 0.010319131955706761 -0.015498661903463048 0.0071144554197239591 0.0015646181511563147 0.016949717435395008 -0.022209781904513146 -0.010669620740290835 0.028206549845867523 -0.0054853314085805613 0.040978522943060487 0.026863812561665684 0.014600931837705351 0.015865059990802011 -0.027622258170816889 0.00028487061731886812 -0.0053464303905136606 -0.027003767352678499 0.025650414860491359 0.044961749125927673 0.045382486859637743 0.023401584132112633
leaf_weight=30.490771114826202 164.1740483045578 105.86791110038757 30.216134190559387 172.04128202795982 167.75658228993416 75.370616525411606 7.4890328645706168 9.2312432825565356 321.91173335909843 91.414857298135757 135.6123434305191 18.150997072458267 301.68024200201035 49.28314208984375 156.54598566889763 10.530604392290117 33.830931931734085 23.821963131427765 10.378074467182161 8.2737197279930097 19.81661668419838 14.7419596016407 10.491196036338804 36.786745995283127 17.726262956857681 637.56654238700867 12.113567233085632 11.788571000099182 39.367102146148682 8.2592279911041242
leaf_count=88 482 308 87 508 481 221 22 27 929 266 400 53 882 143 463 31 98 70 30 24 58 43 31 108 52 1889 35 34 113 24
internal_value=-5.19525e-07 0.0178745 0.00498099 -0.0194743 0.0318099 -0.000344594 -0.00343348 -0.0235641 0.0267047 0.0161379 -0.00985528 0.0320779 0.00457898 0.030175 -0.0246696 -0.00723428 0.0208416 -0.0190376 0.0221233 0.00903943 0.00583195 -0.00259351 -0.0139165 -0.00920743 0.00428449 -0.0260587 0.0449447 0.0351748 0.0404719 0.0331892
internal_weight=2732.73 1424.86 740.096 1307.87 684.759 618.531 265.708 1042.17 493.101 121.906 210.983 121.565 407.548 371.195 989.976 231.308 51.9819 195.863 34.4001 15.7628 30.3472 52.1907 19.7224 200.961 32.4682 794.113 191.659 23.9021 69.5832 18.6373
internal_count=8000 4138 2162 3862 1976 1811 779 3083 1426 354 621 351 1190 1072 2930 679 151 578 100 46 89 153 58 590 95 2352 550 69 200 54
is_linear=0
shrinkage=0.03


Tree=4
num_leaves=31
num_cat=0
split_feature=4 4 2 2 2 0 2 34 4 0 0 32 2 2 2 4 4 2 18 4 32 26 12 2 36 12 3 4 35 38
split_gain=255.856 308.873 53.9776 82.6921 52.7853 49.5426 34.9516 42.6617 29.0795 28.6594 27.8035 20.5855 17.4963 16.8061 8.78525 6.95358 6.92969 7.84199 6.90343 6.14242 6.13388 5.83437 5.43551 3.73521 2.86088 2.63555 1.86901 1.72077 1.47721 1.45793
threshold=5.5000000000000009 8.5000000000000018 8.5000000000000018 6.5000000000000009 8.5000000000000018 2.5000000000000004 5.5000000000000009 1.7500000000000002 6.5000000000000009 1.5000000000000002 1.5000000000000002 2.8750000000000004 9.5000000000000018 5.5000000000000009 9.5000000000000018 9.5000000000000018 4.5000000000000009 6.5000000000000009 2.5000000000000004 9.5000000000000018 3.6250000000000004 2.5000000000000004 3.5000000000000004 9.5000000000000018 4.8750000000000009 3.5000000000000004 1.5000000000000002 1.5000000000000002 2.4166666666666674 1.6250000000000002
decision_type=2 2 2 2 2 2 2 2 2 2 2 2 2 2 2 2 2 2 2 2 2 2 2 2 2 2 2 2 2 2
left_child=5 2 3 8 10 6 18 12 -2 22 19 -5 -8 -12 -9 26 27 29 25 -3 -20 -11 -4 -17 -19 -1 -6 -7 -29 -18
right_child=1 4 9 11 15 16 7 14 -10 21 13 -13 -14 -15 -16 23 17 24 20 -21 -22 -23 -24 -25 -26 -27 -28 28 -30 -31
leaf_value=-0.02053206940608179 -0.0031568908742555081 -0.0044285623290173139 -0.008545098891932423 0.0097954967966782918 -0.012496479440230693 -0.029927741534236968 -0.0049970374313943579 0.0096676543954624106 0.01422641526498104 0.013820858340471613 -0.010332673791628305 0.027036170056496344 -0.020083770123133528 0.017781947710648657 -0.0056902534791668305 -0.013350860778927416 -0.016226754677626343 0.0047529153039832231 -0.014159876408802582 -0.020592915696560129 0.00506285243749052 -0.00033529615909759454 0.008327867279226988 -0.026664863045006221 -0.013775808341016653 -0.0093945021625001929 -0.022436356534496275 -0.027628179278583472 -0.021230217102693402 -0.02786975776549341
leaf_weight=181.29799926280975 152.73813760280609 37.165363848209381 119.80671674013138 70.653921484947205 65.650404900312424 61.386585354804993 181.96061816811562 177.48591530323029 200.04209998250008 167.41872295737267 26.587623834609985 529.04022037982941 111.622828155756 68.273772746324539 41.327898561954498 21.291401773691177 15.663978606462477 17.188376247882847 51.335754811763763 49.12154433131218 21.072504490613937 31.064621269702911 20.060101211071014 173.52203181385994 13.305372297763823 21.376614779233932 22.986236274242401 55.195557326078415 78.915782034397125 25.334952533245087
leaf_count=520 436 106 342 200 188 177 519 504 566 474 76 1490 320 193 118 61 45 49 147 141 60 88 57 499 38 61 66 159 227 73
internal_value=2.99627e-06 0.00701917 0.0145688 0.0182252 -0.0139565 -0.0116771 -0.00789078 -0.0032599 0.00670022 0.0042759 -0.00130736 0.0250049 -0.0107331 0.00990202 0.00676697 -0.0220403 -0.0228449 -0.0148526 -0.0165167 -0.0136306 -0.00856561 0.0116053 -0.00612513 -0.0252098 -0.00333174 -0.0193574 -0.0150742 -0.0257676 -0.0238634 -0.0234215
internal_weight=2809.89 1755.42 1290.82 952.474 464.598 1054.47 787.48 512.397 352.78 338.35 181.148 599.694 293.583 94.8614 218.814 283.45 266.991 71.4927 275.083 86.2869 72.4083 198.483 139.867 194.813 30.4937 202.675 88.6366 195.498 134.111 40.9989
internal_count=8000 4983 3653 2692 1330 3017 2249 1461 1002 961 516 1690 839 269 622 814 768 205 788 247 207 562 399 560 87 581 254 563 386 118
is_linear=0
shrinkage=0.03


Tree=5
num_leaves=29
num_cat=0
split_feature=4 2 2 0 0 0 2 2 4 0 4 1 0 35 22 22 10 34 34 18 4 31 0 12 12 4 33 20
split_gain=952.924 373.405 108.838 87.0021 69.728 48.6647 19.6491 15.4262 12.3706 12.2741 10.2434 8.43776 8.42 8.40164 7.34191 6.32551 9.43743 6.30309 5.46206 5.08515 4.92416 4.83387 4.48736 4.80404 4.34967 4.2853 2.7858 2.69121
threshold=8.5000000000000018 8.5000000000000018 8.5000000000000018 1.5000000000000002 1.5000000000000002 1.5000000000000002 7.5000000000000009 7.5000000000000009 6.5000000000000009 2.5000000000000004 9.5000000000000018 1.5000000000000002 2.5000000000000004 3.0833333333333335 3.5000000000000004 3.5000000000000004 1.5000000000000002 1.7500000000000002 1.2500000000000002 1.5000000000000002 7.5000000000000009 2.1250000000000004 1.5000000000000002 3.5000000000000004 2.5000000000000004 9.5000000000000018 2.1250000000000004 2.5000000000000004
decision_type=2 2 2 2 2 2 2 2 2 2 2 2 2 2 2 2 2 2 2 2 2 2 2 2 2 2 2 2
left_child=1 4 5 8 7 15 17 14 19 11 26 -5 22 -11 -1 16 -2 -6 -9 -3 -8 -10 27 -24 -12 -17 -7 -4
right_child=2 3 12 9 6 10 20 18 21 13 24 -13 -14 -15 -16 25 -18 -19 -20 -21 -22 -23 23 -25 -26 -27 -28 -29
leaf_value=-0.015449238078247876 0.043259029005360078 0.033657989405744826 0.05356902010944576 0.018055915467833934 -0.019181257348638639 0.00059360794811225018 -0.015189818852756649 0.017296236542942062 0.034377477525899938 -0.014830553355693291 0.027482802613536268 0.0039097792049065721 0.026127961507373475 0.01287244540140272 -0.0040571441142593073 0.035004108703592163 0.002175670556049651 -0.024281028329669906 0.0016156006200382712 0.017912605120483999 -0.0062490625332383377 0.055711910655395942 0.052461856691360644 0.032560373478573254 0.0024657279567451731 0.051867307368191361 -0.019311360931647443 0.061460747083944479
leaf_weight=80.21673521399498 11.358482182025911 24.364935606718063 69.332022577524185 46.499251157045364 411.0525173842907 43.653495341539383 203.48115313053131 28.001231461763382 86.583705395460129 45.288066267967224 20.613292098045353 206.3637403845787 9.4391954243183118 12.592125385999678 139.38432571291924 23.823775947093964 9.0352755188941938 464.71460145711899 69.903088808059692 76.175708562135696 76.202471673488617 10.744273006916044 71.778296649456024 12.874358803033827 8.979853540658949 31.488977342844009 7.4008769392967215 88.575808227062225
leaf_count=271 37 80 224 154 1394 146 687 93 283 153 68 688 31 42 468 78 30 1580 234 252 256 35 232 42 30 102 25 285
internal_value=-2.92899e-06 -0.00860241 0.0417267 0.0135596 -0.0162549 0.0220643 -0.0196766 -0.00380321 0.0291087 0.00365854 0.00584823 0.00651113 0.0539264 -0.00880363 -0.00821849 0.0393387 0.0250574 -0.0218874 0.00610036 0.0217283 -0.0127538 0.0367326 0.0550081 0.0494351 0.0198915 0.0446042 -0.00229183 0.0579958
internal_weight=2389.92 1981.57 408.354 508.612 1472.96 156.354 1155.45 317.505 197.869 310.743 80.6475 252.863 252 57.8802 219.601 75.7065 20.3938 875.767 97.9043 100.541 279.684 97.328 242.56 84.6527 29.5931 55.3128 51.0544 157.908
internal_count=8000 6670 1330 1687 4983 516 3917 1066 650 1037 269 842 814 195 739 247 67 2974 327 332 943 318 783 274 98 180 171 509
is_linear=0
shrinkage=0.03


Tree=6
num_leaves=31
num_cat=0
split_feature=4 2 0 2 0 4 0 0 0 2 8 4 2 12 2 32 32 26 12 22 0 5 6 30 21 5 4 32 10 36
split_gain=997.403 261.457 110.427 91.952 46.3044 30.0531 27.3459 26.0667 18.5331 12.9627 12.8295 11.3147 10.9877 10.2303 8.36363 6.41724 5.61826 5.40571 5.27406 4.55504 4.45458 4.37958 4.54427 3.99082 3.86567 3.16311 2.50716 2.32052 2.26267 1.07416
threshold=6.5000000000000009 6.5000000000000009 2.5000000000000004 6.5000000000000009 2.5000000000000004 5.5000000000000009 2.5000000000000004 2.5000000000000004 1.5000000000000002 7.5000000000000009 3.5000000000000004 4.5000000000000009 7.5000000000000009 3.5000000000000004 7.5000000000000009 2.8750000000000004 3.8750000000000004 2.5000000000000004 2.5000000000000004 3.5000000000000004 1.5000000000000002 3.5000000000000004 2.5000000000000004 2.5000000000000004 2.5000000000000004 3.5000000000000004 5.5000000000000009 3.1250000000000004 1.5000000000000002 3.8750000000000004
decision_type=2 2 2 2 2 2 2 2 2 2 2 2 2 2 2 2 2 2 2 2 2 2 2 2 2 2 2 2 2 2
left_child=1 4 5 6 8 12 15 14 10 -7 -1 28 -3 -10 17 23 -13 -5 19 -8 -17 22 -9 -2 -23 -16 29 -28 -4 -6
right_child=3 2 11 7 26 9 18 21 13 -11 -12 16 -14 -15 25 20 -18 -19 -20 -21 -22 24 -24 -25 -26 -27 27 -29 -30 -31
leaf_value=0.032240692719295777 -0.0012328891686596447 0.012707895279049841 0.032500432507517649 -0.02052794127340726 0.045381362370205534 0.00042426778242379457 -0.00067479171122731467 0.0016742357798386254 0.03086689929055466 -0.015125055076099736 0.0098874117423050859 0.01423449828158928 0.0014988556705784876 0.016251576182799675 -0.021773607797384929 -0.015075144149435235 0.036347224945382173 -0.0052439810556644748 0.038547459553606264 0.025815020281214105 -0.0057075424079519382 0.015634988431873921 -0.027257893126812323 0.022629429166097947 -0.0051558179072357787 -0.026559638360867287 0.020650837692402023 0.040382518065031597 0.043332030226604548 0.039537741968568463
leaf_weight=30.870301872491837 21.420808881521229 106.45417162775993 30.649002492427826 170.47115233540535 134.85702913999557 75.227413684129715 10.93661105632782 9.2291715145111102 325.93706804513931 134.56108921766281 91.905122011899948 38.136155486106873 301.95905247330666 49.672615617513657 154.85639840364456 70.529813647270203 14.188164502382277 23.725443989038467 11.13139173388481 12.542015016078949 129.70750805735588 14.781783074140547 10.382297962903975 8.9405557215213758 17.670024126768112 629.45963400602341 8.0276931822299975 16.166976869106293 40.022864609956741 35.832901358604431
leaf_count=88 63 308 87 508 380 221 32 27 929 400 266 110 882 143 463 209 41 70 32 36 381 43 31 26 52 1889 23 46 113 101
internal_value=-1.92201e-06 0.0172317 0.00484486 -0.01908 0.0304749 -0.000320164 -0.00332632 -0.023134 0.0256266 -0.00954927 0.0155079 0.0308052 0.00442053 0.0289341 -0.0242346 -0.00705836 0.0202305 -0.0186607 0.0215394 0.0134758 -0.0090071 -0.00244968 -0.0136424 0.00579388 0.00431438 -0.0256147 0.0428735 0.0338356 0.0386346 0.0441546
internal_weight=2730.25 1434.47 741.198 1295.78 693.27 618.202 265.209 1030.58 498.385 209.789 122.775 122.996 408.413 375.61 978.513 230.599 52.3243 194.197 34.61 23.4786 200.237 52.0633 19.6115 30.3614 32.4518 784.316 194.885 24.1947 70.6719 170.69
internal_count=8000 4138 2162 3862 1976 1811 779 3083 1426 621 354 351 1190 1072 2930 679 151 578 100 68 590 153 58 89 95 2352 550 69 200 481
is_linear=0
shrinkage=0.03


Tree=7
num_leaves=31
num_cat=0
split_feature=4 4 2 2 2 0 2 34 0 4 0 32 2 2 2 4 18 4 2 32 4 26 12 2 36 12 3 4 35 38
split_gain=239.895 289.078 50.423 50.2987 75.7066 47.0613 33.4504 40.8119 26.6754 26.595 26.1266 19.2542 16.8392 15.698 8.29012 6.79603 6.73316 6.71637 7.48959 5.90309 5.87721 5.53283 5.22115 3.66395 2.73501 2.51166 1.82644 1.69932 1.46333 1.43844
threshold=5.5000000000000009 8.5000000000000018 8.5000000000000018 8.5000000000000018 6.5000000000000009 2.5000000000000004 5.5000000000000009 1.7500000000000002 1.5000000000000002 6.5000000000000009 1.5000000000000002 2.8750000000000004 9.5000000000000018 5.5000000000000009 9.5000000000000018 9.5000000000000018 2.5000000000000004 4.5000000000000009 6.5000000000000009 3.6250000000000004 9.5000000000000018 2.5000000000000004 3.5000000000000004 9.5000000000000018 4.8750000000000009 3.5000000000000004 1.5000000000000002 1.5000000000000002 2.4166666666666674 1.6250000000000002
decision_type=2 2 2 2 2 2 2 2 2 2 2 2 2 2 2 2 2 2 2 2 2 2 2 2 2 2 2 2 2 2
left_child=5 3 10 4 9 6 16 12 22 -2 20 -6 -8 -12 -9 26 25 27 29 -18 -3 -10 -5 -17 -20 -1 -4 -7 -29 -19
right_child=1 2 15 8 11 17 7 14 21 -11 13 -13 -14 -15 -16 23 19 18 24 -21 -22 -23 -24 -25 -26 -27 -28 28 -30 -31
leaf_value=-0.020109789270931499 -0.0029430532358916328 -0.0042688616610562363 -0.012104654128080343 -0.0083406321648181042 0.0093141513783439687 -0.029369730756054879 -0.0048473601441764748 0.0094626269044862099 0.013288116195482995 0.013674978578758542 -0.010061895472267077 0.025941723171737416 -0.019687686509767526 0.01712694771937992 -0.0054716982592397682 -0.012936456684641235 -0.013786263247099705 -0.01568112948571964 0.0047290352626129396 0.0050905720690333821 -0.020121170169137 -0.00048158327480858073 0.0081888395198307633 -0.026170635813400938 -0.013416289268485398 -0.0092200864518929334 -0.021972242717202061 -0.027075806585420508 -0.020669461028094131 -0.027309546600655491
leaf_weight=179.86414930224419 152.29587185382843 37.083561271429062 65.238728523254395 119.44983848929405 71.01232174038887 60.544953793287277 181.58209708333015 177.88155448436737 168.32380822300911 201.14813962578773 26.477544784545898 533.99102446436882 110.80580312013626 68.702756553888321 41.201148808002472 21.147456139326096 51.020375818014145 15.513477772474287 17.192241907119755 21.065361261367798 48.679820686578751 31.117991179227829 20.091272205114365 171.6391578912735 13.228430747985838 21.321800321340561 22.775884419679642 54.496180325746536 78.046595185995102 25.006548970937729
leaf_count=520 436 106 188 342 200 177 519 504 474 566 76 1490 320 193 118 61 147 45 49 60 141 88 57 499 38 61 66 159 227 73
internal_value=7.26941e-06 0.00677781 -0.0136074 0.0140327 0.0175456 -0.0113494 -0.00766326 -0.00313589 0.00410038 0.00651442 -0.00125755 0.0239901 -0.0104714 0.00956347 0.00665405 -0.0215655 -0.0161369 -0.0223054 -0.0144115 -0.00826995 -0.0132667 0.0111397 -0.0059607 -0.0247189 -0.00316146 -0.0189557 -0.0146581 -0.0252056 -0.0233035 -0.0228575
internal_weight=2807.95 1759.18 461.745 1297.43 958.447 1048.77 784.742 511.471 338.983 353.444 180.944 605.003 292.388 95.1803 219.083 280.801 273.272 264.028 70.9407 72.0857 85.7634 199.442 139.541 192.787 30.4207 201.186 88.0146 193.088 132.543 40.52
internal_count=8000 4983 1330 3653 2692 3017 2249 1461 961 1002 516 1690 839 269 622 814 788 768 205 207 247 562 399 560 87 581 254 563 386 118
is_linear=0
shrinkage=0.03


Tree=8
num_leaves=29
num_cat=0
split_feature=4 2 2 0 0 0 2 2 0 4 4 35 1 0 22 34 22 10 34 8 4 1 12 0 12 4 33 20
split_gain=881.963 355.001 95.5998 80.152 67.8739 44.1493 19.1421 14.7918 11.4029 10.9998 9.67287 8.12858 7.97601 7.42266 7.1286 6.26685 5.77087 8.73878 5.16894 4.85496 4.78561 4.59318 4.05306 3.99348 4.3292 3.77068 2.6956 2.36994
threshold=8.5000000000000018 8.5000000000000018 8.5000000000000018 1.5000000000000002 1.5000000000000002 1.5000000000000002 7.5000000000000009 7.5000000000000009 2.5000000000000004 6.5000000000000009 9.5000000000000018 3.0833333333333335 1.5000000000000002 2.5000000000000004 3.5000000000000004 1.7500000000000002 3.5000000000000004 1.5000000000000002 1.2500000000000002 3.5000000000000004 7.5000000000000009 1.5000000000000002 2.5000000000000004 1.5000000000000002 3.5000000000000004 9.5000000000000018 2.1250000000000004 2.5000000000000004
decision_type=2 2 2 2 2 2 2 2 2 2 2 2 2 2 2 2 2 2 2 2 2 2 2 2 2 2 2 2
left_child=1 4 5 9 7 16 15 14 12 19 26 -10 -5 23 -1 -6 17 -2 -9 -3 -8 -11 -12 27 -25 -18 -7 -4
right_child=2 3 13 8 6 10 20 18 11 21 22 -13 -14 -15 -16 -17 25 -19 -20 -21 -22 -23 -24 24 -26 -27 -28 -29
leaf_value=-0.015185053909754593 0.041054244413501965 0.0079682523114692275 0.050420190855353347 0.017416183557953008 -0.018864622002904816 0.00056719219005457418 -0.014938859853158522 0.016847104420888055 -0.014534958121314209 0.041275493088197009 0.026481097790821851 0.012716455508466109 0.0037237017057650612 0.024868793574820074 -0.0039185580222336385 -0.02398708388434494 0.033391919768710296 0.0018156182218759234 0.0016312959536442619 0.024205430905182474 -0.0061014428145348366 0.028381310002145266 0.0023943328472971624 0.049380818347823735 0.030716238673023265 0.049025454602331521 -0.019089762569209814 0.057707204605724011
leaf_weight=79.457800596952438 11.638481855392458 20.838724583387375 71.510419547557831 46.969529390335083 405.59211206436157 43.678143203258514 201.67409053444862 28.203149974346161 44.819370657205582 50.358590245246887 20.89645338058472 12.626098960638044 207.15198141336441 9.6042184829711896 138.89897266030312 457.29986074566841 24.298501133918762 9.1039168536663038 69.878783911466599 80.967189818620682 75.903827399015427 49.112496137619019 8.9932750165462476 74.009845376014709 13.175527364015577 32.39902937412262 7.332700014114379 91.646605104207993
leaf_count=271 37 68 224 154 1394 146 687 93 153 161 68 42 688 31 468 1580 78 30 234 264 256 157 30 232 42 102 25 285
internal_value=-6.35057e-06 -0.00840786 0.0395571 0.0130583 -0.0159641 0.0211808 -0.0193749 -0.00367123 0.00352577 0.0278141 0.00568214 -0.00854529 0.0062545 0.0507506 -0.00801832 -0.0215793 0.0373721 0.0238323 0.00600655 0.0208818 -0.0125223 0.0349092 0.0192338 0.0517436 0.0465602 0.0423255 -0.00225845 0.0545134
internal_weight=2388.04 1969.75 418.287 512.844 1456.91 158.341 1140.47 316.439 311.567 201.277 80.9006 57.4455 254.122 259.947 218.357 862.892 77.4399 20.7424 98.0819 101.806 277.578 99.4711 29.8897 250.342 87.1854 56.6975 51.0108 163.157
internal_count=8000 6670 1330 1687 4983 516 3917 1066 1037 650 269 195 842 814 739 2974 247 67 327 332 943 318 98 783 274 180 171 509
is_linear=0
shrinkage=0.03


Tree=9
num_leaves=31
num_cat=0
split_feature=4 2 0 2 0 4 0 0 0 2 5 8 4 12 2 37 10 26 22 34 4 26 5 6 21 5 4 22 10 4
split_gain=941.62 240.814 102.895 88.7532 42.3068 28.0555 26.0839 25.328 17.1495 12.5122 12.0858 10.4594 10.1021 9.51113 8.14573 6.33804 5.47963 5.28234 4.98992 5.62392 4.58501 4.37587 4.24775 4.41599 3.714 3.12202 2.19035 2.2453 2.12329 1.47668
threshold=6.5000000000000009 6.5000000000000009 2.5000000000000004 6.5000000000000009 2.5000000000000004 5.5000000000000009 2.5000000000000004 2.5000000000000004 1.5000000000000002 7.5000000000000009 3.5000000000000004 3.5000000000000004 4.5000000000000009 3.5000000000000004 7.5000000000000009 2.1666666666666674 1.5000000000000002 2.5000000000000004 3.5000000000000004 1.7500000000000002 7.5000000000000009 2.5000000000000004 3.5000000000000004 2.5000000000000004 2.5000000000000004 3.5000000000000004 5.5000000000000009 3.5000000000000004 1.5000000000000002 7.5000000000000009
decision_type=2 2 2 2 2 2 2 2 2 2 2 2 2 2 2 2 2 2 2 2 2 2 2 2 2 2 2 2 2 2
left_child=1 4 5 6 8 11 15 14 10 -7 -1 -3 28 -10 17 21 -14 -5 19 -8 -17 -2 23 -9 -24 -16 -6 -28 -4 -20
right_child=3 2 12 7 26 9 18 22 13 -11 -12 -13 16 -15 25 20 -18 -19 29 -21 -22 -23 24 -25 -26 -27 27 -29 -30 -31
leaf_value=0.025076480834684681 -0.010933255900810991 0.014628981905352216 0.031049248703788501 -0.020151933192219272 0.042183952087509628 0.0005469900664244519 -0.010403772502947531 0.0016876193572930157 0.029626913666346306 -0.014760661469938957 0.006251875221157081 0.002048010981569255 0.0063984456171385833 0.015588999046924382 -0.021352211354546482 0.020679430456116116 0.026717231637828982 -0.0050077857890853811 0.038825428850612159 0.025399259904013337 -0.0033130739248284119 0.0005409259835964913 0.015410205439976451 -0.026907611299243801 -0.004968996793604314 -0.026134625019151519 0.023600079544185412 0.041781200018307388 0.041473784324004052 0.02196625100863648
leaf_weight=56.832285791635513 162.92970716953278 72.21773287653923 31.029467403888702 168.87699323892593 173.18172237277031 75.086037427186966 7.4548707306385031 9.2270910441875476 329.53828239440918 133.50392788648605 66.742296516895294 337.00700324773788 18.320708036422729 50.033034920692444 153.14083752036095 11.634821832180025 34.326894223690033 23.629487574100494 10.571967005729677 8.3952884674072248 18.674431324005127 36.64021509885788 14.820240825414656 10.270914703607557 17.614056915044785 621.15367847681046 12.35955747961998 12.096479266881943 40.584769010543823 8.3838160336017591
leaf_count=162 482 210 87 508 481 221 22 27 929 400 192 980 53 143 463 34 98 70 30 24 55 108 43 31 52 1889 35 34 113 24
internal_value=-4.10623e-06 0.0166241 0.00471396 -0.0186981 0.0292361 -0.000295993 -0.00322082 -0.0227194 0.0246163 -0.00925037 0.0149094 0.00426823 0.0296228 0.0277765 -0.0238157 -0.00688536 0.0196465 -0.018293 0.020982 0.00855987 0.00589694 -0.00882664 -0.00230945 -0.0133754 0.0043429 -0.0251888 0.0409971 0.0325929 0.036957 0.0313689
internal_weight=2726.28 1442.86 742.077 1283.42 700.784 617.815 264.685 1018.73 503.146 208.59 123.575 409.225 124.262 379.571 966.801 229.879 52.6476 192.506 34.8059 15.8502 30.3093 199.57 51.9323 19.498 32.4343 774.295 197.638 24.456 71.6142 18.9558
internal_count=8000 4138 2162 3862 1976 1811 779 3083 1426 621 354 1190 351 1072 2930 679 151 578 100 46 89 590 153 58 95 2352 550 69 200 54
is_linear=0
shrinkage=0.03


Tree=10
num_leaves=31
num_cat=0
split_feature=4 4 2 2 2 0 2 34 0 0 4 32 2 2 2 4 18 4 2 6 4 0 12 2 10 12 0 4 35 38
split_gain=224.985 270.598 48.1514 46.8973 69.3902 44.7389 32.0066 39.0689 24.8121 24.5872 24.31 18.0738 16.2214 14.6591 7.81593 6.65208 6.56985 6.49646 7.16918 5.78034 5.63054 5.27957 5.01868 3.59918 2.72788 2.39507 1.80267 1.68193 1.45283 1.42286
threshold=5.5000000000000009 8.5000000000000018 8.5000000000000018 8.5000000000000018 6.5000000000000009 2.5000000000000004 5.5000000000000009 1.7500000000000002 1.5000000000000002 1.5000000000000002 6.5000000000000009 2.8750000000000004 9.5000000000000018 5.5000000000000009 9.5000000000000018 9.5000000000000018 2.5000000000000004 4.5000000000000009 6.5000000000000009 2.5000000000000004 9.5000000000000018 2.5000000000000004 3.5000000000000004 9.5000000000000018 1.5000000000000002 3.5000000000000004 1.5000000000000002 1.5000000000000002 2.4166666666666674 1.6250000000000002
decision_type=2 2 2 2 2 2 2 2 2 2 2 2 2 2 2 2 2 2 2 2 2 2 2 2 2 2 2 2 2 2
left_child=5 3 9 4 10 6 16 12 22 20 -2 -6 -8 -11 -9 26 25 27 29 -18 -3 -10 -5 -17 -20 -1 -4 -7 -29 -19
right_child=1 2 15 8 11 17 7 14 21 13 -12 -13 -14 -15 -16 23 19 18 24 -21 -22 -23 -24 -25 -26 -27 -28 28 -30 -31
leaf_value=-0.019698374462410701 -0.002732668424639179 -0.004117231633498232 -0.018081638531449125 -0.0081335070919215657 0.0088481193629269955 -0.028838941259723243 -0.0047022708689319157 0.0092649034992968952 0.01232438095302823 -0.0097848526449056776 0.013151469627737753 0.024916808084224581 -0.019307303349955073 0.016510110789548255 -0.0052517658013895487 -0.012526914764665041 -0.019945256325873233 -0.015167288762956151 0.0081570776638292229 -0.0019210788431341678 -0.019673632909573864 -0.003879432841768198 0.0080665051907396219 -0.025692977301985331 -0.010250856234033028 -0.0090474533335308509 -0.0094046481393297611 -0.026547029533051852 -0.020122828779449497 -0.026796591034369103
leaf_weight=178.39365088939667 151.85265463590622 37.004228562116623 48.759590864181519 119.08246749639511 71.347782671451569 59.657196611166 181.20798516273499 178.2564902305603 180.20577383041382 26.361732512712479 202.16219010949135 538.3599661886692 109.98336145281792 69.09018337726593 41.071198284626007 20.999579280614853 24.122723877429962 15.364208430051802 11.951375752687456 47.635466754436493 48.235002547502518 20.117258787155151 20.11852690577507 169.67172661423683 18.40000981092453 21.266637176275253 38.613487213850021 53.763702869415283 77.140536844730377 24.677484422922134
leaf_count=520 436 106 142 342 200 177 519 504 505 76 566 1490 320 193 118 61 70 45 34 137 141 57 57 499 53 61 112 159 227 73
internal_value=1.27581e-05 0.00654949 -0.0132665 0.0135246 0.0169024 -0.0110311 -0.00744159 -0.00301603 0.00393671 -0.00120964 0.00633806 0.0230365 -0.0102186 0.00924802 0.00654652 -0.0211018 -0.0157658 -0.0217871 -0.013999 -0.00798021 -0.0129203 0.0106971 -0.00579214 -0.0242429 -0.00300242 -0.0185639 -0.0142469 -0.024664 -0.0227613 -0.0223344
internal_weight=2804.87 1761.98 458.736 1303.25 963.723 1042.89 781.938 510.519 339.524 180.691 354.015 609.708 291.191 95.4519 219.328 278.044 271.418 260.955 70.3931 71.7582 85.2392 200.323 139.201 190.671 30.3514 199.66 87.3731 190.561 130.904 40.0417
internal_count=8000 4983 1330 3653 2692 3017 2249 1461 961 516 1002 1690 839 269 622 814 788 768 205 207 247 562 399 560 87 581 254 563 386 118
is_linear=0
shrinkage=0.03


Tree=11
num_leaves=28
num_cat=0
split_feature=4 2 2 0 0 0 2 2 0 4 4 35 1 22 0 34 22 34 4 18 22 25 12 0 12 14 20
split_gain=817.823 337.526 84.6345 73.9669 66.045 40.1075 18.6688 14.2015 10.5942 9.82585 9.15101 7.85853 7.54666 6.9114 6.60968 6.24141 5.38057 4.89335 4.65239 4.63556 4.32785 3.9468 3.7873 3.60216 3.94085 2.62486 2.11959
threshold=8.5000000000000018 8.5000000000000018 8.5000000000000018 1.5000000000000002 1.5000000000000002 1.5000000000000002 7.5000000000000009 7.5000000000000009 2.5000000000000004 6.5000000000000009 9.5000000000000018 3.0833333333333335 1.5000000000000002 3.5000000000000004 2.5000000000000004 1.7500000000000002 2.5000000000000004 1.2500000000000002 7.5000000000000009 1.5000000000000002 2.5000000000000004 3.5000000000000004 2.5000000000000004 1.5000000000000002 3.5000000000000004 3.5000000000000004 2.5000000000000004
decision_type=2 2 2 2 2 2 2 2 2 2 2 2 2 2 2 2 2 2 2 2 2 2 2 2 2 2 2
left_child=1 4 5 9 7 16 15 13 12 19 25 -10 -5 -1 23 -6 -2 -9 -8 -3 -11 -18 -12 26 -25 -7 -4
right_child=2 3 14 8 6 10 18 17 11 20 22 -13 -14 -15 -16 -17 21 -19 -20 -21 -22 -23 -24 24 -26 -27 -28
leaf_value=-0.014925460216443667 0.016422566409069056 0.031297039068977864 0.047622100921703173 0.016809968413062867 -0.018551876933745156 0.000894285497082873 -0.014688827806654529 0.016419945214719289 -0.014243816412972543 0.049717528435349476 0.025563933901758863 0.012552579163599809 0.0035468626592037368 -0.0037917452804967569 0.023697820776960279 -0.023702184359006107 0.035987768155041532 0.0016502255268448771 -0.0059517838009736732 0.01647093714421425 0.030906580198085128 0.057681622381533591 0.0023336465413915852 0.046638596027233914 0.029024249516005685 -0.017105407769959769 0.05441718502391877
leaf_weight=78.704873472452164 11.32893657684326 25.092011243104935 73.477099865674973 47.416724324226379 400.11179301142693 42.142175018787384 199.85845214128494 28.395677000284195 44.353567063808441 12.563285261392592 21.157391250133518 12.661754637956617 207.89997225999832 138.45279932022095 9.7585532367229444 449.87095177173615 59.06747031211853 69.849293172359467 75.600350975990295 77.915557563304901 88.896194487810135 8.6534261703491193 9.0045038759708387 76.027078568935394 13.454382568597792 8.8170592784881574 94.386465519666672
leaf_count=271 36 80 224 154 1394 141 687 93 153 39 68 42 688 468 31 1580 184 234 256 252 279 27 30 232 42 30 285
internal_value=-1.03107e-05 -0.00821762 0.0375931 0.012582 -0.015678 0.0203511 -0.0190782 -0.00354519 0.00339907 0.0266094 0.00553182 -0.00829297 0.00601005 -0.00782696 0.0479325 -0.0212778 0.0355586 0.00591911 -0.0122909 0.0200825 0.0332359 0.0387598 0.0186288 0.0488515 0.0439901 -0.00222005 0.0514428
internal_weight=2384.92 1957.64 427.275 516.799 1440.84 160.171 1125.44 315.403 312.332 204.467 81.1211 57.0153 255.317 217.158 267.104 849.983 79.0498 98.245 275.459 103.008 101.459 67.7209 30.1619 257.345 89.4815 50.9592 167.864
internal_count=8000 6670 1330 1687 4983 516 3917 1066 1037 650 269 195 842 739 814 2974 247 327 943 332 318 211 98 783 274 171 509
is_linear=0
shrinkage=0.03


Tree=12
num_leaves=30
num_cat=0
split_feature=4 2 0 2 0 4 0 0 0 2 8 2 4 12 2 32 32 26 12 5 6 0 22 30 21 5 14 10 4
split_gain=889.322 222.211 95.9197 85.7172 38.8936 26.1733 24.8857 24.551 15.9189 12.0733 11.5993 10.1242 9.08774 8.8712 7.94131 6.16882 5.34822 5.16532 4.79413 4.11324 4.28186 4.10281 4.07521 3.72058 3.57319 3.08796 2.07851 2.00567 1.9284
threshold=6.5000000000000009 6.5000000000000009 2.5000000000000004 6.5000000000000009 2.5000000000000004 5.5000000000000009 2.5000000000000004 2.5000000000000004 1.5000000000000002 7.5000000000000009 3.5000000000000004 7.5000000000000009 4.5000000000000009 3.5000000000000004 7.5000000000000009 2.8750000000000004 3.8750000000000004 2.5000000000000004 2.5000000000000004 3.5000000000000004 2.5000000000000004 1.5000000000000002 3.5000000000000004 2.5000000000000004 2.5000000000000004 3.5000000000000004 4.5000000000000009 1.5000000000000002 5.5000000000000009
decision_type=2 2 2 2 2 2 2 2 2 2 2 2 2 2 2 2 2 2 2 2 2 2 2 2 2 2 2 2 2
left_child=1 4 5 6 8 11 15 14 10 -7 -1 -3 27 -10 17 23 -14 -5 22 20 -9 -17 -8 -2 -21 -16 28 -4 -6
right_child=3 2 12 7 26 9 18 19 13 -11 -12 -13 16 -15 25 21 -18 -19 -20 24 -22 -23 -24 -25 -26 -27 -28 -29 -30
leaf_value=0.030086958216870352 -0.00093489712590394435 0.012041924394783051 0.029705901834036808 -0.019787359646042051 0.041004956148140238 0.00066673077842397505 -0.00067028175234560162 0.0016483041072727317 0.02846968698626284 -0.014400858305269068 0.0090065313078547052 0.0013165543439080673 0.013239368015826581 0.014959827321742633 -0.020941169967588536 -0.014505091876197217 0.034665655619216501 -0.004776546874534225 0.03649872023804332 0.015151250068215848 -0.026578028287966144 -0.005472752426197546 0.024305762792359003 0.022074453912704597 -0.0048328924368739182 -0.025725917217069301 0.023551519465889913 0.039781805569953747 0.031851993106113564
leaf_weight=31.445761948823929 21.318736553192142 107.28101655840874 31.360599786043167 167.27174228429794 169.05848234891891 74.946765393018723 10.930303961038589 9.2320114374160784 332.740135461092 132.43083262443542 92.872143745422363 302.71716824173927 38.553228944540024 50.365949869155884 151.39066115021706 69.669895827770233 14.401225149631498 23.534252047538757 11.327769130468367 14.863840997219084 10.159951299428938 129.18673092126846 12.723957270383835 8.9926697909831983 17.57208788394928 612.65528011322021 7.2782670855522147 41.058354109525681 23.609603703022003
leaf_count=88 63 308 87 508 464 221 32 27 929 400 266 882 110 143 463 209 41 70 32 43 31 381 36 26 52 1889 20 113 66
internal_value=-7.07623e-06 0.0160487 0.0045882 -0.0183281 0.0280825 -0.00027007 -0.00311796 -0.0223191 0.0236667 -0.0089554 0.0143387 0.00412298 0.0285118 0.0266936 -0.0234106 -0.00671559 0.0190664 -0.0179359 0.0204502 -0.00220986 -0.0131402 -0.00863725 0.0127647 0.00589143 0.00432489 -0.0247779 0.0392889 0.0354185 0.0398833
internal_weight=2720.95 1450.12 742.749 1270.83 707.37 617.376 264.15 1006.68 507.424 207.378 124.318 409.998 125.373 383.106 954.852 229.168 52.9545 190.806 34.982 51.8279 19.392 198.857 23.6543 30.3114 32.4359 764.046 199.946 72.419 192.668
internal_count=8000 4138 2162 3862 1976 1811 779 3083 1426 621 354 1190 351 1072 2930 679 151 578 100 153 58 590 68 89 95 2352 550 200 530
is_linear=0
shrinkage=0.03


Tree=13
num_leaves=31
num_cat=0
split_feature=4 4 2 2 0 2 34 0 0 4 2 4 2 2 18 0 4 2 4 6 12 38 22 32 4 35 36 21 10 21
split_gain=211.028 253.668 79.976 66.635 42.5484 30.6138 37.2929 29.4743 24.2894 18.2584 15.5454 13.435 11.4815 7.3317 6.40988 6.40137 6.31576 6.86347 5.72973 5.58852 4.0665 3.88943 3.04382 2.32784 1.66974 1.44355 0.910317 2.00077 0.684734 0.311981
threshold=5.5000000000000009 9.5000000000000018 8.5000000000000018 6.5000000000000009 2.5000000000000004 5.5000000000000009 1.7500000000000002 1.5000000000000002 1.5000000000000002 6.5000000000000009 9.5000000000000018 8.5000000000000018 9.5000000000000018 9.5000000000000018 2.5000000000000004 1.5000000000000002 4.5000000000000009 5.5000000000000009 8.5000000000000018 2.5000000000000004 2.5000000000000004 1.8750000000000002 3.5000000000000004 2.1250000000000004 1.5000000000000002 2.4166666666666674 5.6250000000000009 2.5000000000000004 1.5000000000000002 3.5000000000000004
decision_type=2 2 2 2 2 2 2 2 2 2 2 2 2 2 2 2 2 2 2 2 2 2 2 2 2 2 2 2 2 2
left_child=4 2 3 9 5 14 10 18 -5 -2 -7 -9 15 -8 23 22 24 28 -4 -16 -17 -19 -3 -1 -6 -26 29 -28 -18 -14
right_child=1 12 7 8 16 6 13 11 -10 -11 -12 -13 26 -15 19 20 17 21 -20 -21 -22 -23 -24 -25 25 -27 27 -29 -30 -31
leaf_value=-0.027697901787465035 -0.0025247815423232907 -0.0080124774685619276 -0.0056238426685575327 0.011764859669245968 -0.028342247948842408 -0.0045692781408666677 0.0090490186114492079 0.010274365363219747 0.024601384779264494 0.010850963574147549 -0.018908699286482804 -0.0090884687497133042 -0.030210490684649243 -0.0050266957068904371 -0.019525991824336401 -0.0098871067346182236 -0.01878942443071091 0.0019475562848017805 -0.017619374404635704 -0.0017453873289579524 0.010094578561965243 -0.016748868435274487 -0.022947217452677464 -0.017069543106162738 -0.026044257253774711 -0.019597915317284251 -0.018319591094758468 -0.026632101442232801 -0.028443937833732249 -0.025414857555701546
leaf_weight=20.712085515260696 151.40797707438469 17.086648970842361 138.8533573448658 180.43010556697845 58.744404166936874 180.8568722307682 178.65790745615959 201.13371694087982 501.16845807433128 233.48558619618416 109.08159029483795 38.409933567047119 33.896883308887482 40.935897350311279 23.916487514972687 28.912405908107758 10.429992079734804 24.261697560548782 48.30475190281868 47.517475634813309 13.42158132791519 17.052596896886826 43.677309513092041 177.38888770341873 53.008202105760574 76.217145800590515 40.052151948213577 74.596779197454453 18.059326112270355 19.081829845905304
leaf_count=61 436 50 399 501 177 519 504 562 1379 653 320 112 101 118 70 83 31 70 142 137 38 50 129 520 159 227 119 222 54 57
internal_value=1.89514e-05 0.00633245 0.0111766 0.0155683 -0.0107218 -0.00722611 -0.00290084 0.000200245 0.0212034 0.00558926 -0.0099641 0.00716961 -0.0203858 0.00642507 -0.0154027 -0.012508 -0.021287 -0.0135811 -0.00871984 -0.00769843 -0.00355211 -0.00576945 -0.0187476 -0.0181808 -0.0241486 -0.0222422 -0.025231 -0.0237282 -0.0249094 -0.0284832
internal_weight=2800.76 1763.92 1493.19 1066.49 1036.84 779.067 509.532 426.702 681.599 384.894 289.938 239.544 270.726 219.594 269.535 103.098 257.773 69.8036 187.158 71.434 42.334 41.3143 60.764 198.101 187.97 129.225 167.628 114.649 28.4893 52.9787
internal_count=8000 4983 4184 2969 3017 2249 1461 1215 1880 1089 839 674 799 622 788 300 768 205 541 207 121 120 179 581 563 386 499 341 85 158
is_linear=0
shrinkage=0.03


Tree=14
num_leaves=29
num_cat=0
split_feature=4 2 2 0 0 0 2 2 0 4 4 35 1 22 34 0 22 10 34 4 8 35 12 0 12 4 33 20
split_gain=759.633 321.354 75.4508 68.3801 64.3337 36.6201 18.2517 13.6514 9.90354 8.75816 8.65104 7.60528 7.15116 6.70767 6.21928 5.92593 5.00245 8.01299 4.63873 4.52318 4.40078 4.1576 3.54213 3.24003 3.61654 3.19964 2.55695 1.93194
threshold=8.5000000000000018 8.5000000000000018 8.5000000000000018 1.5000000000000002 1.5000000000000002 1.5000000000000002 7.5000000000000009 7.5000000000000009 2.5000000000000004 6.5000000000000009 9.5000000000000018 3.0833333333333335 1.5000000000000002 3.5000000000000004 1.7500000000000002 2.5000000000000004 3.5000000000000004 1.5000000000000002 1.2500000000000002 7.5000000000000009 3.5000000000000004 1.9166666666666667 2.5000000000000004 1.5000000000000002 3.5000000000000004 9.5000000000000018 2.1250000000000004 2.5000000000000004
decision_type=2 2 2 2 2 2 2 2 2 2 2 2 2 2 2 2 2 2 2 2 2 2 2 2 2 2 2 2
left_child=1 4 5 9 7 16 14 13 12 20 26 -10 -5 -1 -6 23 17 -2 -9 -8 -3 -11 -12 27 -25 -18 -7 -4
right_child=2 3 15 8 6 10 19 18 11 21 22 -13 -14 -15 -16 -17 25 -19 -20 -21 -22 -23 -24 24 -26 -27 -28 -29
leaf_value=-0.014671269210179545 0.03762112321040962 0.0071492796317638553 0.045090507724809506 0.016265440672426995 -0.018250224150355834 0.00054499885662925276 -0.01443903838425172 0.016027416623704056 -0.013973869530180132 0.041924651495688456 0.024673374930083879 0.012387329261484106 0.0034024115221197616 -0.003663208994671104 -0.023429756797426697 0.022627874804208706 0.030322596538187259 0.00061129159472971472 0.0016775617166112876 -0.0058005586423607036 0.02248007312675945 0.028154161153835379 0.0022594427601590221 0.044212463359165954 0.027500033257230844 0.044435282647400182 -0.018727709278121334 0.051498416664054115
leaf_weight=77.964149922132492 12.080596923828127 21.148863583803177 75.261236280202866 47.819365233182907 394.74712145328522 43.695638835430145 198.03272044658661 28.572928786277771 43.918485671281815 26.563879489898682 21.411751657724384 12.697537839412687 208.50996494293213 138.00033321976662 442.54907011985779 9.8998187780380231 25.213944345712662 9.3323494493961316 69.806780785322189 75.293128222227097 82.936369925737381 76.73305732011795 9.0182065069675428 77.816208124160767 13.706087648868559 33.895144104957581 7.2191230952739707 96.819962561130524
leaf_count=271 37 68 224 154 1394 146 687 93 153 82 68 42 688 468 1580 31 78 30 234 256 264 236 30 232 42 102 25 285
internal_value=-1.4208e-05 -0.00803119 0.0358068 0.0121471 -0.0153993 0.0195727 -0.0187905 -0.0034176 0.00329392 0.0255068 0.0053758 -0.00806172 0.00580207 -0.00763717 -0.0209878 0.0454145 0.0339147 0.0214912 0.00584526 -0.0120594 0.019365 0.0316954 0.0180308 0.0462703 0.0417097 0.0384153 -0.00218765 0.0486959
internal_weight=2380.66 1945.29 435.37 520.328 1424.97 161.867 1110.62 314.344 312.945 207.382 81.3447 56.616 256.329 215.964 837.296 273.503 80.522 21.4129 98.3797 273.326 104.085 103.297 30.43 263.603 91.5223 59.1091 50.9148 172.081
internal_count=8000 6670 1330 1687 4983 516 3917 1066 1037 650 269 195 842 739 2974 814 247 67 327 943 332 318 98 783 274 180 171 509
is_linear=0
shrinkage=0.03


Tree=15
num_leaves=31
num_cat=0
split_feature=4 2 0 2 0 4 0 0 0 2 5 8 12 4 2 37 32 26 22 34 4 26 5 6 21 5 14 10 4 13
split_gain=840.306 205.393 89.6228 82.8392 35.9714 24.4198 23.9414 23.7577 14.8157 11.6703 10.9684 9.91423 8.36193 8.17158 7.75879 6.07946 5.08718 5.04751 4.52117 5.17263 4.26888 4.25209 3.97308 4.18265 3.43494 3.07166 1.9626 1.90579 1.71861 1.38227
threshold=6.5000000000000009 6.5000000000000009 2.5000000000000004 6.5000000000000009 2.5000000000000004 5.5000000000000009 2.5000000000000004 2.5000000000000004 1.5000000000000002 7.5000000000000009 3.5000000000000004 3.5000000000000004 3.5000000000000004 4.5000000000000009 7.5000000000000009 2.1666666666666674 3.8750000000000004 2.5000000000000004 3.5000000000000004 1.7500000000000002 7.5000000000000009 2.5000000000000004 3.5000000000000004 2.5000000000000004 2.5000000000000004 3.5000000000000004 4.5000000000000009 1.5000000000000002 5.5000000000000009 1.5000000000000002
decision_type=2 2 2 2 2 2 2 2 2 2 2 2 2 2 2 2 2 2 2 2 2 2 2 2 2 2 2 2 2 2
left_child=1 4 5 7 8 11 14 15 10 -7 -1 -3 -10 27 17 21 -15 -5 19 -9 -17 -2 23 -8 -24 -16 28 -4 -6 -20
right_child=3 2 13 6 26 9 22 18 12 -11 -12 -13 -14 16 25 20 -18 -19 29 -21 -22 -23 24 -25 -26 -27 -28 -29 -30 -31
leaf_value=0.023392101188995876 -0.010548826759990151 0.014032659430277447 0.028457726596642387 -0.019432388991309044 0.039357711496793485 0.00078884664792085201 0.0017504973445793576 -0.010174635760835066 0.027393678908656453 -0.014055440620036708 0.0055656459147491082 0.0018215570330163276 0.014321315422721219 0.012867824697446614 -0.020536349749212451 0.0201686196509221 0.033690871577859709 -0.0045600668447721053 0.019641476624080154 0.02410448237050937 -0.0029701221988904128 0.00078815877853620985 0.014953757504091742 -0.026237282384670858 -0.0046430811066703005 -0.025337941144283081 0.022491590449742097 0.038234329343517462 0.03075415700866823 0.036146448047765234
leaf_weight=57.701270997524261 161.69003555178642 72.713543981313705 31.645443499088287 165.66164314746857 170.69384074211121 74.806254029273987 9.2179974317550677 7.4227929413318625 335.54836454987526 131.37899729609489 67.28996530175209 337.99449095129967 50.692540347576141 38.703940480947495 149.59972029924393 11.69905471801758 14.520750671625136 23.444781601428986 7.465937644243243 8.4969450831413251 18.560367166996002 36.495367765426636 14.896873503923414 10.039905369281767 17.513974547386169 604.12536659836769 7.3302483856678 41.449117928743362 23.810926973819733 11.760053873062132
leaf_count=162 482 210 87 508 464 221 27 22 929 400 192 980 143 110 463 34 41 70 21 24 55 108 43 31 52 1889 20 113 66 33
internal_value=-1.03264e-05 0.0155042 0.00446851 -0.0179689 0.0270065 -0.000245648 -0.0219321 -0.00301616 0.0227727 -0.00866977 0.0137951 0.00398346 0.025678 0.0274906 -0.0230218 -0.00654884 0.0185488 -0.0175886 0.019946 0.00812138 0.0059759 -0.00846115 -0.0020484 -0.0128406 0.00436414 -0.0243849 0.0377302 0.0340017 0.0383045 0.0297372
internal_weight=2714.37 1456.28 743.213 1258.09 713.067 616.893 994.5 263.591 511.232 206.185 124.991 410.708 386.241 126.319 942.832 228.445 53.2247 189.106 35.1457 15.9197 30.2594 198.185 51.6688 19.2579 32.4108 753.725 201.835 73.0946 194.505 19.226
internal_count=8000 4138 2162 3862 1976 1811 3083 779 1426 621 354 1190 1072 351 2930 679 151 578 100 46 89 590 153 58 95 2352 550 200 530 54
is_linear=0
shrinkage=0.03


Tree=16
num_leaves=31
num_cat=0
split_feature=4 4 2 2 2 2 0 0 0 34 0 4 2 4 0 18 0 32 4 34 7 22 4 32 38 4 7 36 21 21
split_gain=197.951 238.843 74.4845 61.2308 40.7317 29.9244 27.6032 27.5142 22.4696 17.6489 16.799 12.4096 11.1914 9.17554 8.03711 6.25895 6.13209 5.47925 5.4204 5.00503 4.00658 2.93202 2.35695 2.27206 2.12475 1.16354 0.966458 0.893299 1.96752 0.312005
threshold=5.5000000000000009 9.5000000000000018 8.5000000000000018 6.5000000000000009 5.5000000000000009 9.5000000000000018 2.5000000000000004 1.5000000000000002 1.5000000000000002 1.7500000000000002 2.5000000000000004 8.5000000000000018 9.5000000000000018 4.5000000000000009 2.5000000000000004 2.5000000000000004 1.5000000000000002 3.6250000000000004 8.5000000000000018 1.7500000000000002 3.5000000000000004 3.5000000000000004 1.5000000000000002 2.1250000000000004 2.1250000000000004 1.5000000000000002 2.5000000000000004 5.6250000000000009 2.5000000000000004 3.5000000000000004
decision_type=2 2 2 2 2 2 2 2 2 2 2 2 2 2 2 2 2 2 2 2 2 2 2 2 2 2 2 2 2 2
left_child=4 2 3 10 14 6 9 18 -5 -6 -2 -9 16 -8 15 23 21 -17 -4 22 -18 -3 -7 -1 -21 -16 -27 29 -29 -14
right_child=1 12 7 8 5 19 13 11 -10 -11 -12 -13 27 -15 25 17 20 -19 -20 24 -22 -23 -24 -25 -26 26 -28 28 -30 -31
leaf_value=-0.027268175846454704 0.0080497022661590676 -0.0077682799046348639 -0.0054516944500269358 0.011330155408766416 -0.0044299904330048229 -0.025343157191701986 -0.023196777782458509 0.0098714703068380483 0.023649616084576837 0.0088646634793064054 -0.0096350407634431812 -0.008774460616044007 -0.029770950469537934 -0.0031176652818808051 -0.029412362957567006 -0.01280630789888571 -0.015045060470536522 0.0054560054453033505 -0.017164943825550845 -0.0042947986722353827 0.0039315204481437677 -0.022473872238730212 -0.016454051051724549 -0.016707053995975139 -0.017967636096574868 -0.019266329481987119 -0.025292745985472296 -0.017901326261549343 -0.026189544983454466 -0.024941065297055698
leaf_weight=20.464422225952148 328.60811612010002 17.01217183470726 138.50500231981277 181.07977670431137 180.48472476005554 37.179816991090775 59.747439473867416 201.88667032122612 504.41613394021988 178.99422183632851 56.680782824754715 38.202902644872665 33.401953220367432 31.167418241500854 29.702782899141312 50.131424248218536 16.321720242500305 20.971522271633148 47.837101191282272 38.116906702518463 25.907828003168106 43.159744530916214 96.586658298969269 176.05727517604828 13.980878025293348 42.94784027338028 54.143503159284592 39.663866013288498 73.62800008058548 18.819418221712112
leaf_count=61 927 50 399 501 519 111 181 562 1379 504 162 112 101 91 91 147 47 60 142 111 74 129 286 520 41 130 164 119 222 57
internal_value=2.63592e-05 0.00612621 0.0107944 0.015017 -0.0104202 -0.00572463 -0.00154518 0.000191122 0.0203953 0.00218977 0.00544806 0.00690454 -0.0199613 -0.0163133 -0.0179949 -0.0150472 -0.0121661 -0.00741991 -0.00845868 -0.0158524 -0.00340293 -0.0183162 -0.0189247 -0.0178068 -0.00796402 -0.0242165 -0.022627 -0.0247841 -0.0232878 -0.0280304
internal_weight=2795.81 1765.13 1497.22 1070.78 1030.68 636.258 450.394 426.432 685.496 359.479 385.289 240.09 267.915 90.9149 394.419 267.625 102.401 71.1029 186.342 185.864 42.2295 60.1719 133.766 196.522 52.0978 126.794 97.0913 165.513 113.292 52.2214
internal_count=8000 4983 4184 2969 3017 1844 1295 1215 1880 1023 1089 674 799 272 1173 788 300 207 541 549 121 179 397 581 152 385 294 499 341 158
is_linear=0
shrinkage=0.03


Tree=17
num_leaves=28
num_cat=0
split_feature=4 2 2 0 0 0 2 2 0 4 4 35 1 22 34 1 22 0 34 18 31 25 12 4 1 14 29
split_gain=707.624 305.732 67.2519 63.265 62.2799 33.6109 17.8657 12.9839 9.17054 8.01723 7.87699 7.35522 7.02477 6.48672 6.21202 5.37876 4.66392 4.45439 4.39681 4.25723 4.12497 3.56507 3.25123 3.11277 2.54049 2.02602 1.69122
threshold=8.5000000000000018 8.5000000000000018 8.5000000000000018 1.5000000000000002 1.5000000000000002 1.5000000000000002 7.5000000000000009 7.5000000000000009 2.5000000000000004 9.5000000000000018 6.5000000000000009 3.0833333333333335 2.5000000000000004 3.5000000000000004 1.7500000000000002 3.5000000000000004 2.5000000000000004 2.5000000000000004 1.2500000000000002 1.5000000000000002 2.1250000000000004 3.5000000000000004 2.5000000000000004 9.5000000000000018 2.5000000000000004 2.5000000000000004 1.5000000000000002
decision_type=2 2 2 2 2 2 2 2 2 2 2 2 2 2 2 2 2 2 2 2 2 2 2 2 2 2 2
left_child=1 4 5 10 7 16 14 13 12 24 19 -10 -5 -1 -6 23 -2 -8 -9 -3 -12 -18 -11 25 -7 -4 -25
right_child=2 3 15 8 6 9 17 18 11 22 20 -13 -14 -15 -16 -17 21 -19 -20 -21 -22 -23 -24 26 -26 -27 -28
leaf_value=-0.014433283228199785 0.014865668077502987 0.029256881965750749 0.036302299840501082 0.0088327343518020181 -0.017945013925853192 0.0018828223941657746 -0.010390034900649542 0.015532045836443601 -0.013677515509578944 0.023658381920178786 0.028163447770503447 0.012256478702300507 -0.0019685604922583914 -0.003572243021480914 -0.023161426272125515 0.020126470190613033 0.032813149868729623 -0.022155299963169332 0.0016033616853788845 0.015215299915439339 0.047079659262873566 0.053017148691499587 0.0022314294633096871 0.049528106170363677 -0.013505104212967484 0.046500725889266195 0.043690434743433156
leaf_weight=77.2649245262146 11.587357819080351 25.726667791604996 61.723736822605133 179.85785108804703 389.26110464334488 37.769797086715698 238.14838522672653 28.797487735748291 43.438309103250504 21.703109741210941 93.330395042896271 12.725799202919005 77.558510810136795 137.67873308062553 435.13963994383812 8.8427153527736646 61.157517969608307 32.971712201833725 69.918919444084167 79.434903204441071 11.672788411378859 9.0194565355777723 9.0231349766254407 76.198817640542984 12.972577810287474 24.486465811729431 107.92689198255539
leaf_count=271 36 80 181 587 1394 127 826 93 153 68 283 42 255 468 1580 26 184 117 234 252 35 27 30 221 44 72 314
internal_value=-1.92252e-05 -0.0078529 0.0342066 0.0117178 -0.0151267 0.0189099 -0.0185014 -0.00333998 0.00318197 0.00527213 0.024454 -0.00780133 0.00557835 -0.00747642 -0.0206984 0.0431504 0.0324984 -0.0118208 0.00566663 0.0186504 0.0302663 0.0354099 0.0173661 0.0439036 -0.00205119 0.039199 0.0461063
internal_weight=2375.34 1932.93 442.412 523.745 1409.18 163.233 1095.52 313.66 313.58 81.4686 210.165 56.1641 257.416 214.944 824.401 279.179 81.7643 271.12 98.7164 105.162 105.003 70.177 30.7262 270.336 50.7424 86.2102 184.126
internal_count=8000 6670 1330 1687 4983 516 3917 1066 1037 269 650 195 842 739 2974 814 247 943 327 332 318 211 98 788 171 253 535
is_linear=0
shrinkage=0.03


Tree=18
num_leaves=30
num_cat=0
split_feature=4 2 0 2 0 0 4 0 0 2 8 8 12 2 4 32 10 26 12 5 6 0 22 30 21 5 14 10 4
split_gain=795.314 190.543 83.7795 79.6946 33.1963 23.386 22.7712 22.2634 13.8323 11.2767 10.4899 9.46131 7.8966 7.59269 7.4406 5.94897 5.07165 4.93323 4.33936 3.83727 4.07991 3.75076 3.6597 3.47097 3.29533 3.05402 1.85785 1.81565 1.58729
threshold=6.5000000000000009 6.5000000000000009 2.5000000000000004 6.5000000000000009 2.5000000000000004 2.5000000000000004 5.5000000000000009 2.5000000000000004 1.5000000000000002 7.5000000000000009 3.5000000000000004 3.5000000000000004 3.5000000000000004 7.5000000000000009 4.5000000000000009 2.8750000000000004 1.5000000000000002 2.5000000000000004 2.5000000000000004 3.5000000000000004 2.5000000000000004 1.5000000000000002 3.5000000000000004 2.5000000000000004 2.5000000000000004 3.5000000000000004 4.5000000000000009 1.5000000000000002 5.5000000000000009
decision_type=2 2 2 2 2 2 2 2 2 2 2 2 2 2 2 2 2 2 2 2 2 2 2 2 2 2 2 2 2
left_child=1 4 6 7 8 13 11 15 10 -8 -1 -3 -10 17 27 23 -16 -5 22 20 -7 -17 -9 -2 -21 -15 28 -4 -6
right_child=3 2 14 5 26 19 9 18 12 -11 -12 -13 -14 25 16 21 -18 -19 -20 24 -22 -23 -24 -25 -26 -27 -28 -29 -30
leaf_value=0.028166353718967869 -0.00065308760068654792 0.013644036868546271 0.027322767676598282 -0.019086419064586541 0.037850432887059783 0.0018459877843266636 0.00090794109604816356 -0.00088213771483472425 0.026423435323255265 -0.013713977824969052 0.0082496406027202773 0.0017376698746783879 0.013756008987393953 -0.020147088046142694 0.0053389303410230982 -0.013959859717826409 0.024745280841001485 -0.0043503260268113334 0.03428355554649299 0.014761715524352924 -0.025891117559042404 -0.0052835338627808632 0.022692505738506639 0.021544628743766139 -0.0044374921493433236 -0.024964833334202012 0.021502548502971591 0.036829979889814957 0.029615484764987269
leaf_weight=31.908559232950211 21.221311509609226 73.032158672809601 31.881171762943268 164.04279321432114 171.97172111272812 9.2049920260906237 74.668464332818985 10.958490371704102 337.90706652402878 130.31609925627708 93.658673852682114 338.3513517677784 50.970819532871246 147.81482467055321 18.557838588953018 68.805774390697479 34.937655061483383 23.357253581285477 11.525857359170912 14.929101556539534 9.9122639596462232 128.75657767057419 12.906465411186218 9.0407268702983838 17.450932025909424 595.49520000815392 7.3737887740135184 41.758834391832352 24.006421595811844
leaf_count=88 63 210 87 508 464 27 221 32 929 400 266 980 143 463 53 209 98 70 32 43 31 381 36 26 52 1889 20 113 66
internal_value=-1.39113e-05 0.0149987 0.00435468 -0.0176288 0.026024 -0.0215573 -0.000218962 -0.00296916 0.0219678 -0.00838774 0.0133108 0.00385139 0.0247631 -0.0226462 0.0265282 -0.00640796 0.0180131 -0.0172497 0.0191677 -0.0018779 -0.0125357 -0.00830527 0.0118673 0.00597844 0.00441447 -0.0240068 0.0362855 0.032714 0.0368417
internal_weight=2706.72 1461.3 743.504 1245.42 717.797 982.207 616.368 263.215 514.445 204.985 125.567 411.384 388.878 930.71 127.135 227.824 53.4955 187.4 35.3908 51.4973 19.1173 197.562 23.865 30.262 32.38 743.31 203.352 73.64 195.978
internal_count=8000 4138 2162 3862 1976 3083 1811 779 1426 621 354 1190 1072 2930 351 679 151 578 100 153 58 590 68 89 95 2352 550 200 530
is_linear=0
shrinkage=0.03


Tree=19
num_leaves=31
num_cat=0
split_feature=4 4 2 2 2 2 0 0 0 34 4 4 2 4 0 18 0 6 4 34 7 22 4 32 38 4 7 14 11 12
split_gain=185.687 224.829 69.444 56.3364 39.0558 28.6312 26.1014 25.7402 20.7882 16.7902 15.817 11.4474 10.8837 8.89615 7.70595 6.10948 5.889 5.32178 5.17289 4.8774 3.84841 2.84431 2.31156 2.22305 2.06523 1.16164 0.958714 0.888559 0.923078 0.872411
threshold=5.5000000000000009 9.5000000000000018 8.5000000000000018 6.5000000000000009 5.5000000000000009 9.5000000000000018 2.5000000000000004 1.5000000000000002 1.5000000000000002 1.7500000000000002 6.5000000000000009 8.5000000000000018 9.5000000000000018 4.5000000000000009 2.5000000000000004 2.5000000000000004 1.5000000000000002 2.5000000000000004 8.5000000000000018 1.7500000000000002 3.5000000000000004 3.5000000000000004 1.5000000000000002 2.1250000000000004 2.1250000000000004 1.5000000000000002 2.5000000000000004 3.5000000000000004 1.5000000000000002 1.5000000000000002
decision_type=2 2 2 2 2 2 2 2 2 2 2 2 2 2 2 2 2 2 2 2 2 2 2 2 2 2 2 2 2 2
left_child=4 2 3 10 14 6 9 18 -5 -6 -2 -9 16 -8 15 23 21 -17 -4 22 -18 -3 -7 -1 -21 -16 -27 28 -14 -29
right_child=1 12 7 8 5 19 13 11 -10 -11 -12 -13 27 -15 25 17 20 -19 -20 24 -22 -23 -24 -25 -26 26 -28 29 -30 -31
leaf_value=-0.026859772932762919 -0.0022688337304294366 -0.0075081011050404586 -0.0052808926205996209 0.010923557821509824 -0.0042967210933836028 -0.024932950201703916 -0.022740328665326284 0.0094896053567496506 0.022750718094427892 0.0086707207851360428 0.010180722106934183 -0.0084561875312629108 -0.02645146081321716 -0.0028989966973548679 -0.028974352468922802 -0.018803436313713295 -0.014713813481995373 -0.0013423991120436254 -0.016765525386286922 -0.0040633603945691467 0.003919659914231567 -0.022040115503152144 -0.016081492482399647 -0.016350930865555956 -0.017590731428820353 -0.018769275584617315 -0.024814086226179036 -0.025128387905761156 -0.021077520635217884 -0.01050129124535212
leaf_weight=20.21288526058197 150.84069529175758 16.933714956045151 138.15231969952583 181.65458744764328 180.12107107043266 36.73563539981842 58.936223179101944 202.57752913236618 507.20161318778992 179.34055295586586 234.83508530259132 37.989954024553299 109.53937378525734 31.053810328245163 29.183044791221619 23.537775605916977 16.223232001066208 47.233685374259949 47.410461604595184 37.975448071956635 25.903205037117004 42.658566415309906 95.798884123563766 174.70546427369118 13.866275370121 42.384261548519135 53.320692300796509 6.8739554584026319 39.012431204319 7.8731037378311157
leaf_count=61 436 50 399 501 519 111 181 562 1379 504 653 112 335 91 91 70 47 137 142 111 74 129 286 520 41 130 164 21 119 24
internal_value=3.42219e-05 0.00592921 0.0104279 0.014492 -0.0101265 -0.00552818 -0.00144436 0.000179996 0.0196318 0.00217292 0.00531161 0.00665564 -0.0195447 -0.0158935 -0.0175885 -0.0146995 -0.0118416 -0.00714974 -0.00821516 -0.0154832 -0.00325624 -0.0179107 -0.0185349 -0.0174407 -0.00768157 -0.0237348 -0.0221371 -0.0243429 -0.0250402 -0.0173193
internal_weight=2790.09 1765.68 1500.66 1074.53 1024.41 633.828 449.452 426.13 688.856 359.462 385.676 240.567 265.018 89.99 390.578 265.69 101.719 70.7715 185.563 184.376 42.1264 59.5923 132.535 194.918 51.8417 124.888 95.705 163.299 148.552 14.7471
internal_count=8000 4983 4184 2969 3017 1844 1295 1215 1880 1023 1089 674 799 272 1173 788 300 207 541 549 121 179 397 581 152 385 294 499 454 45
is_linear=0
shrinkage=0.03


Tree=20
num_leaves=28
num_cat=0
split_feature=4 2 0 2 0 0 2 2 0 4 18 4 1 22 34 0 4 22 34 8 1 25 33 18 0 14 25
split_gain=659.906 291.18 60.3804 60.3209 58.6299 31.0026 17.5339 12.3495 8.48161 7.43774 7.1699 7.06942 6.70518 6.28435 6.20186 5.11014 4.42467 4.30681 4.17423 4.0078 3.98569 3.29768 3.10253 2.83846 3.04131 2.49114 0.772784
threshold=8.5000000000000018 8.5000000000000018 1.5000000000000002 8.5000000000000018 1.5000000000000002 1.5000000000000002 7.5000000000000009 7.5000000000000009 2.5000000000000004 9.5000000000000018 2.5000000000000004 6.5000000000000009 2.5000000000000004 3.5000000000000004 1.7500000000000002 2.5000000000000004 7.5000000000000009 2.5000000000000004 1.2500000000000002 3.5000000000000004 1.5000000000000002 3.5000000000000004 1.3750000000000002 2.5000000000000004 1.5000000000000002 3.5000000000000004 2.5000000000000004
decision_type=2 2 2 2 2 2 2 2 2 2 2 2 2 2 2 2 2 2 2 2 2 2 2 2 2 2 2
left_child=1 2 7 5 11 17 14 13 12 25 -10 19 -6 -1 -4 23 -8 -2 -9 -3 -13 -19 -11 24 -5 -7 -25
right_child=3 4 6 15 8 9 16 18 10 22 -12 20 -14 -15 -16 -17 -18 21 -20 -21 -22 -23 -24 26 -26 -27 -28
leaf_value=-0.014197099155037207 0.014310842219291461 0.0064120037629177128 -0.017651758535744244 0.042848081948183583 0.0085408881255288095 0.0010800812420435522 -0.013961013986531276 0.01507355156424304 -0.016577718472067314 0.0050843490639465253 0.0052767827023279647 0.034657423318882968 -0.0020009794127479395 -0.0034707277383336636 -0.022903834611350281 0.020260654817150527 -0.0053586204545876311 0.031478685523907576 0.0015392640081219641 0.020935309616353214 0.023052803934731393 0.050726723862050717 0.024456258117018636 0.043649706696682562 0.035286799459541864 -0.016607904639529457 0.050306177946801429
leaf_weight=76.568764895200729 11.680353552103041 21.426651418209076 383.92912527918816 136.30885764956474 180.79672899842262 41.962991505861282 194.50188806653023 29.005641102790833 32.64403024315834 12.391024529933931 23.050689578056335 54.081114083528519 77.613378196954727 137.31992661952972 427.84483748674393 10.210276752710341 74.395651161670685 62.02559357881546 70.015408307313919 84.704671412706375 52.490351676940918 9.1989026367664319 18.624618828296661 27.759040415287018 73.793619126081467 8.6419357955455762 36.123542010784149
leaf_count=271 36 68 1394 388 587 141 687 93 116 39 79 161 255 468 1580 31 256 184 234 264 157 27 59 79 213 30 103
internal_value=-2.44091e-05 -0.00767796 -0.0148603 0.0327305 0.0113218 0.0182741 -0.0182205 -0.00325546 0.00308601 0.00514929 -0.00753267 0.0234838 0.00537464 -0.0073106 -0.0204199 0.0410995 -0.011581 0.0311956 0.00550378 0.0180032 0.0289417 0.0339646 0.016717 0.0418761 0.0401924 -0.00194054 0.0474137
internal_weight=2369.11 1920.39 1393.58 448.721 526.808 164.525 1080.67 312.91 314.105 81.6206 55.6947 212.703 258.41 213.889 811.774 284.195 268.898 82.9048 99.021 106.131 106.571 71.2245 31.0156 273.985 210.102 50.6049 63.8826
internal_count=8000 6670 4983 1330 1687 516 3917 1066 1037 269 195 650 842 739 2974 814 943 247 327 332 318 211 98 783 601 171 182
is_linear=0
shrinkage=0.03


Tree=21
num_leaves=31
num_cat=0
split_feature=4 2 0 2 0 0 0 4 0 2 2 2 12 2 4 37 32 26 26 22 34 0 5 6 21 5 14 14 4 4
split_gain=751.923 176.669 78.5325 77.0599 31.0099 22.8239 21.2486 21.2235 12.9333 10.9091 10.0186 9.19941 7.48124 7.43806 6.79826 5.85211 4.86368 4.82536 4.13692 4.10461 4.77133 3.97353 3.71091 3.98173 3.16311 3.0401 1.76724 1.74297 1.46758 1.35981
threshold=6.5000000000000009 6.5000000000000009 2.5000000000000004 6.5000000000000009 2.5000000000000004 2.5000000000000004 2.5000000000000004 5.5000000000000009 1.5000000000000002 7.5000000000000009 5.5000000000000009 7.5000000000000009 3.5000000000000004 7.5000000000000009 4.5000000000000009 2.1666666666666674 3.8750000000000004 2.5000000000000004 2.5000000000000004 3.5000000000000004 1.7500000000000002 1.5000000000000002 3.5000000000000004 2.5000000000000004 2.5000000000000004 3.5000000000000004 4.5000000000000009 2.5000000000000004 2.5000000000000004 7.5000000000000009
decision_type=2 2 2 2 2 2 2 2 2 2 2 2 2 2 2 2 2 2 2 2 2 2 2 2 2 2 2 2 2 2
left_child=1 4 7 6 8 13 15 11 10 -9 -1 -3 -10 17 27 18 -16 -5 -2 20 -8 -17 23 -7 -24 -15 28 -4 -6 -21
right_child=3 2 14 5 26 22 19 9 12 -11 -12 -13 -14 25 16 21 -18 -19 -20 29 -22 -23 24 -25 -26 -27 -28 -29 -30 -31
leaf_value=0.018081046090354436 -0.010204779756924312 0.011227715366784768 0.029196973481877626 -0.018748533711206678 0.039507662214561749 0.0019202520084387873 -0.010171796484215432 0.0010238930298655767 0.025471213707827671 -0.013387048269515998 -0.00075879433969545712 0.0010425680220708282 0.013175334333559425 -0.019766560357457563 0.011983618275787354 -0.009175735668059638 0.032235288840070528 -0.0041412169255220458 0.0010010853077697883 0.034993250507080929 0.022656781843999826 0.013824633864474731 0.014565972548927766 -0.025572548148397947 -0.0042480319799977411 -0.024604143878485692 0.020583593303501947 0.040589009037898728 0.03383243596425739 0.01904111210311393
leaf_weight=90.86769887804985 160.53547775745392 108.25089606642723 58.860093921422958 162.41637814044952 58.19173988699913 9.1945600509643572 7.4220976233482387 74.533601731061935 340.04825326800346 129.27866852283478 35.261781752109528 303.79839560389519 51.245984256267548 146.01047840714455 39.043995469808578 10.214082539081575 14.688104122877119 23.269072234630585 36.367140471935272 10.884736210107805 8.6030853688716871 19.990355134010315 14.961152046918867 9.788308918476103 17.391719579696655 586.73559182882309 7.4090005755424491 15.211014628410338 138.88186463713646 8.6164117455482465
leaf_count=254 482 308 159 508 156 27 22 221 929 400 100 882 143 463 110 31 41 70 108 30 24 58 43 31 52 1889 20 41 374 24
internal_value=-1.81315e-05 0.0145051 0.00424263 -0.0172891 0.0250768 -0.021193 -0.00287399 -0.000198429 0.0211681 -0.00811701 0.012814 0.00371834 0.0238609 -0.0222811 0.0256433 -0.00624897 0.0175196 -0.016918 -0.0081351 0.0187011 0.00745216 0.00604671 -0.00172615 -0.0122561 0.00445225 -0.0236402 0.0349674 0.0315364 0.0355082 0.0279449
internal_weight=2697.97 1465.57 743.665 1232.4 721.906 969.767 262.633 615.862 517.424 203.812 126.129 412.049 391.294 918.432 127.803 227.107 53.7321 185.685 196.903 35.5263 16.0252 30.2044 51.3357 18.9829 32.3529 732.746 204.483 74.0711 197.074 19.5011
internal_count=8000 4138 2162 3862 1976 3083 779 1811 1426 621 354 1190 1072 2930 351 679 151 578 590 100 46 89 153 58 95 2352 550 200 530 54
is_linear=0
shrinkage=0.03


Tree=22
num_leaves=31
num_cat=0
split_feature=4 4 2 2 2 4 0 2 0 0 0 2 4 0 34 0 18 0 32 4 22 12 22 32 20 4 21 36 21 21
split_gain=174.227 211.86 64.6859 51.8498 37.4366 27.8073 24.0004 19.3346 19.2653 17.0979 15.3249 10.6064 10.5533 7.39974 6.69148 7.28136 5.96886 5.66509 5.1754 4.88862 4.07335 3.73481 2.76623 2.17555 1.31321 1.16199 0.967162 0.892657 1.9638 0.317329
threshold=5.5000000000000009 9.5000000000000018 8.5000000000000018 6.5000000000000009 5.5000000000000009 2.5000000000000004 1.5000000000000002 9.5000000000000018 1.5000000000000002 2.5000000000000004 2.5000000000000004 9.5000000000000018 8.5000000000000018 2.5000000000000004 1.7500000000000002 2.5000000000000004 2.5000000000000004 1.5000000000000002 3.6250000000000004 8.5000000000000018 3.5000000000000004 2.5000000000000004 3.5000000000000004 2.1250000000000004 3.5000000000000004 1.5000000000000002 3.5000000000000004 5.6250000000000009 2.5000000000000004 3.5000000000000004
decision_type=2 2 2 2 2 2 2 2 2 2 2 2 2 2 2 2 2 2 2 2 2 2 2 2 2 2 2 2 2 2
left_child=4 2 3 10 13 14 19 9 -5 -7 -2 17 -8 16 24 -16 23 22 -18 -4 -9 -19 -3 -1 -6 -15 -27 29 -29 -13
right_child=1 11 6 8 5 7 12 20 -10 -11 -12 27 -14 25 15 -17 18 21 -20 -21 -22 -23 -24 -25 -26 26 -28 28 -30 -31
leaf_value=-0.026464087629421866 0.0076547920470028388 -0.0072480863942390875 -0.0051079015181652049 0.010535059786560785 -0.020412251796951254 0.0040489975054426516 0.0091235725212840974 -0.0049544859609689414 0.021901859427665277 -0.012704518895478419 -0.0092762331807722254 -0.029002119251151114 -0.0081438773838343956 -0.028561566971397417 0.0016269202976466138 -0.024838196244063214 -0.012168963841706109 -0.0092365898310092735 0.0056260820226820022 -0.016319840448957013 -0.016366335067019858 0.0099433157302882963 -0.021627662159535273 -0.016003316086228941 -0.028606644196781508 -0.023589787664999858 -0.01687209747152436 -0.016971156519092711 -0.025354929426895136 -0.024059751311012449
leaf_weight=19.952553510665894 329.60436904430389 16.853625118732452 137.79181250929832 182.17572912573814 59.142687737941742 315.37829628586769 203.21685895323753 42.816535025835037 509.54110702872276 66.360033512115479 56.338072031736374 32.425640404224396 37.776425510644913 28.650970190763474 25.716886252164841 14.707146137952803 49.510699033737183 28.598488211631775 20.926121354103088 46.917197108268738 82.181228786706924 13.427421778440474 42.159151643514633 173.34424158930779 25.059031307697296 67.245008021593094 27.046766877174377 38.749844521284103 71.622953116893768 18.284818440675735
leaf_count=61 927 50 399 501 178 897 562 128 1379 201 162 101 112 91 73 46 147 83 60 142 245 38 129 520 76 210 84 119 222 57
internal_value=4.28621e-05 0.00574229 0.0100817 0.0139929 -0.0098411 -0.00533893 0.000180664 -0.00221663 0.0189082 0.00113663 0.00518328 -0.0191459 0.00641685 -0.0171922 -0.0180344 -0.00800167 -0.0143587 -0.0115263 -0.00688222 -0.0079558 -0.0124573 -0.00310854 -0.017521 -0.0170831 -0.022851 -0.0232706 -0.0216629 -0.0239253 -0.0224115 -0.02722
internal_weight=2783.52 1765.48 1503.36 1077.66 1018.04 631.362 425.702 506.736 691.717 381.738 385.942 262.122 240.993 386.676 124.626 40.424 263.734 101.039 70.4368 184.709 124.998 42.0259 59.0128 193.297 84.2017 122.943 94.2918 161.083 110.373 50.7105
internal_count=8000 4983 4184 2969 3017 1844 1215 1471 1880 1098 1089 799 674 1173 373 119 788 300 207 541 373 121 179 581 254 385 294 499 341 158
is_linear=0
shrinkage=0.03


Tree=23
num_leaves=29
num_cat=0
split_feature=4 2 0 0 2 0 2 2 0 35 4 18 8 1 34 22 1 4 22 10 34 27 12 25 4 1 14 29
split_gain=616.245 277.368 58.4635 54.3889 54.3562 28.5587 17.2088 11.7747 7.83091 7.02112 6.89042 6.72288 6.99065 6.51901 6.20328 6.07396 4.84348 4.31728 4.03238 7.38112 3.96502 3.44295 3.02783 2.97989 2.63989 2.45691 1.84022 1.51953
threshold=8.5000000000000018 8.5000000000000018 1.5000000000000002 1.5000000000000002 8.5000000000000018 1.5000000000000002 7.5000000000000009 7.5000000000000009 2.5000000000000004 3.0833333333333335 9.5000000000000018 1.5000000000000002 3.5000000000000004 1.5000000000000002 1.7500000000000002 3.5000000000000004 3.5000000000000004 7.5000000000000009 3.5000000000000004 1.5000000000000002 1.2500000000000002 1.5000000000000002 2.5000000000000004 1.5000000000000002 9.5000000000000018 2.5000000000000004 2.5000000000000004 1.5000000000000002
decision_type=2 2 2 2 2 2 2 2 2 2 2 2 2 2 2 2 2 2 2 2 2 2 2 2 2 2 2 2
left_child=1 2 7 11 5 18 14 15 13 -10 25 21 -13 -5 -4 -1 24 -8 19 -2 -9 -3 -12 -20 26 -7 -6 -26
right_child=4 3 6 8 16 10 17 20 9 -11 22 12 -14 -15 -16 -17 -18 -19 23 -21 -22 -23 -24 -25 27 -27 -28 -29
leaf_value=-0.013969385783644478 0.034144165249749045 0.037299345765157921 -0.017359306117036934 0.015071810545721622 0.032952126261474313 0.0020575164676037427 -0.01371088022837018 0.014635749514199513 -0.013111219465751764 0.012297889905705227 0.022110599984960542 0.004872846915427209 0.022073980583413769 0.0028930886199431565 -0.022652875942701593 -0.0033900660906802404 0.017672796879046028 -0.0051878453408567577 0.023262412095022767 -0.00082235973919672243 0.0014792738446240032 0.022983068610357999 0.0015911168462512235 0.037976609432467827 0.045118737457321791 -0.013152426084685562 0.04251224278449061 0.03967878316478074
leaf_weight=75.893151134252548 12.523802876472475 34.20837876200676 378.57218906283379 48.702111184597015 63.668273419141769 37.62191253900528 192.64809313416481 29.20449835062027 42.512552827596664 12.714704215526579 22.145674407482151 25.489436894655228 128.27409932017326 210.65332037210464 420.57779830694199 137.03329342603683 9.0783739089965803 74.048725664615631 17.135212540626526 9.5965791642665845 70.105381488800049 27.092241644859314 9.1444905996322614 44.702923864126205 78.880330830812454 12.813636749982832 25.330746382474899 111.5869814157486
leaf_count=271 37 102 1394 154 181 127 687 93 153 42 68 79 388 688 1580 468 26 256 50 30 234 81 30 130 221 44 72 314
internal_value=-2.98011e-05 -0.00750703 -0.0145987 0.0109446 0.0313741 0.0176787 -0.0179431 -0.0031822 0.00299584 -0.0072614 0.00505448 0.0225716 0.0192225 0.00518003 -0.0201452 -0.00716084 0.039238 -0.0113444 0.0299671 0.0189745 0.00534826 0.0309722 0.0161138 0.0338993 0.0399386 -0.00180672 0.0356731 0.0419317
internal_weight=2361.96 1907.73 1378.08 529.647 454.229 165.684 1065.85 312.236 314.583 55.2273 81.7257 215.064 153.764 259.355 799.15 212.926 288.545 266.697 83.9585 22.1204 99.3099 61.3006 31.2902 61.8381 279.466 50.4355 88.999 190.467
internal_count=8000 6670 4983 1687 1330 516 3917 1066 1037 195 269 650 467 842 2974 739 814 943 247 67 327 183 98 180 788 171 253 535
is_linear=0
shrinkage=0.03


Tree=24
num_leaves=30
num_cat=0
split_feature=4 2 2 0 0 0 4 0 0 2 5 2 2 12 4 32 10 26 12 5 6 1 17 30 21 5 10 14 4
split_gain=712.281 164.238 74.2069 73.6049 28.8771 22.357 20.175 19.932 12.1211 9.99129 9.78547 9.14257 7.30517 7.11988 6.30253 5.72996 4.83659 4.71548 3.99619 3.58295 3.89145 3.5353 3.32495 3.24887 3.04015 3.02754 1.73928 1.6894 1.39941
threshold=6.5000000000000009 6.5000000000000009 6.5000000000000009 2.5000000000000004 2.5000000000000004 2.5000000000000004 4.5000000000000009 2.5000000000000004 1.5000000000000002 7.5000000000000009 3.5000000000000004 7.5000000000000009 7.5000000000000009 3.5000000000000004 4.5000000000000009 2.8750000000000004 1.5000000000000002 2.5000000000000004 2.5000000000000004 3.5000000000000004 2.5000000000000004 2.5000000000000004 2.5000000000000004 2.5000000000000004 2.5000000000000004 3.5000000000000004 1.5000000000000002 4.5000000000000009 5.5000000000000009
decision_type=2 2 2 2 2 2 2 2 2 2 2 2 2 2 2 2 2 2 2 2 2 2 2 2 2 2 2 2 2
left_child=1 4 7 6 8 12 9 15 10 -3 -1 -8 17 -10 26 23 -16 -4 22 20 -7 -17 -9 -2 -21 -14 -5 28 -6
right_child=2 3 5 14 27 19 11 18 13 -11 -12 -13 25 -15 16 21 -18 -19 -20 24 -22 -23 -24 -25 -26 -27 -28 -29 -30
leaf_value=0.021353207634664931 -0.0004013768380485437 0.019695860862882716 -0.018417660548493326 0.025221917115874425 0.035205865288911987 0.0020419947050070398 0.0024448724543253237 0.0016272238345015177 0.02461091950670077 0.0039230863870960263 0.0046272452917114027 -0.0070458323125988055 -0.019401730959701293 0.012644125446325212 0.0046650763173379612 -0.010724732394818038 0.023538358944939518 -0.0039458086914825052 0.032397528994416953 0.01441254081482852 -0.02524144486311718 -0.0020670230874108597 0.024275275863842111 0.021052382814735392 -0.004039978005073182 -0.024260339344844471 0.034478198504650344 0.019697609800277793 0.02752200199833485
leaf_weight=58.627250194549561 21.132821172475818 47.342579543590546 160.78248113393784 32.245910793542862 173.53729864954948 9.1776866316795367 135.74567094445229 14.087732762098314 341.79977062344551 152.81822603940964 67.986694395542145 279.32539957761765 144.22930207848549 51.48697218298912 18.697567880153656 134.1742896437645 35.276888877153397 23.185942828655243 11.676632076501845 14.986135035753248 9.654199004173277 62.092713326215744 9.9576381742954236 9.0834748148918134 17.326351493597031 578.01189056038857 42.15326663851738 7.4380206465721121 24.321599662303925
leaf_count=162 63 134 508 87 464 27 395 40 929 443 192 839 463 143 53 404 98 70 32 43 31 186 28 26 52 1889 113 20 66
internal_value=-2.21125e-05 0.0140488 -0.0169687 0.00414202 0.0242071 -0.0208416 -0.000169411 -0.00282848 0.0204452 0.00765371 0.012372 -0.00394197 -0.0219307 0.0230443 0.0248046 -0.0061134 0.0170004 -0.0165937 0.0179985 -0.00154377 -0.0119449 -0.00798571 0.0110062 0.00604795 0.00451807 -0.0232901 0.0304664 0.0337337 0.0342613
internal_weight=2688.36 1468.8 1219.56 743.606 725.198 957.354 615.232 262.205 519.901 200.161 126.614 415.071 906.21 393.287 128.374 226.483 53.9745 183.968 35.722 51.1444 18.8319 196.267 24.0454 30.2163 32.3125 722.241 74.3992 205.297 197.859
internal_count=8000 4138 3862 2162 1976 3083 1811 779 1426 577 354 1234 2930 1072 351 679 151 578 100 153 58 590 68 89 95 2352 200 550 530
is_linear=0
shrinkage=0.03


Tree=25
num_leaves=31
num_cat=0
split_feature=4 4 2 2 2 4 0 2 0 0 0 2 4 0 34 0 18 0 6 4 22 7 22 5 20 4 7 14 11 12
split_gain=163.332 199.428 60.4158 47.7892 35.8586 26.7896 22.4753 18.4676 17.8766 16.0862 14.2831 10.3258 9.71349 7.14166 6.53822 6.97369 5.83342 5.44444 5.08697 4.64593 3.98264 3.69071 2.67704 2.14604 1.29465 1.15401 0.967749 0.892314 0.926033 0.866341
threshold=5.5000000000000009 9.5000000000000018 8.5000000000000018 6.5000000000000009 5.5000000000000009 2.5000000000000004 1.5000000000000002 9.5000000000000018 1.5000000000000002 2.5000000000000004 2.5000000000000004 9.5000000000000018 8.5000000000000018 2.5000000000000004 1.7500000000000002 2.5000000000000004 2.5000000000000004 1.5000000000000002 2.5000000000000004 8.5000000000000018 3.5000000000000004 3.5000000000000004 3.5000000000000004 3.5000000000000004 3.5000000000000004 1.5000000000000002 2.5000000000000004 3.5000000000000004 1.5000000000000002 1.5000000000000002
decision_type=2 2 2 2 2 2 2 2 2 2 2 2 2 2 2 2 2 2 2 2 2 2 2 2 2 2 2 2 2 2
left_child=4 2 3 10 13 14 19 9 -5 -7 -2 17 -8 16 24 -16 23 22 -18 -4 -9 -19 -3 -1 -6 -15 -27 28 -13 -29
right_child=1 11 6 8 5 7 12 20 -10 -11 -12 27 -14 25 15 -17 18 21 -20 -21 -22 -23 -24 -25 -26 26 -28 29 -30 -31
leaf_value=-0.020496656041376779 0.0074332705547832684 -0.0070192922817077933 -0.0049602298793406819 0.010165358345906938 -0.020046031615868827 0.0039923442015925336 0.008771356022859127 -0.0047098392893213815 0.021099067750974847 -0.012316959126589208 -0.0089481685430510393 -0.025656223479074404 -0.0078313685847731952 -0.028155753870220578 0.001633549955164124 -0.024404331957638605 -0.018114987854246468 -0.014252783779084332 -0.00093076543052533561 -0.015932214747560645 -0.016025846139748643 0.0040550092487664493 -0.021212859569380019 -0.01405152296933318 -0.028233376477339121 -0.017785977861753823 -0.023949393399135595 -0.024292575324833976 -0.020200282503901188 -0.0095276805772620439
leaf_weight=79.38507816195488 330.18480852246284 16.779319852590561 137.48141667246819 182.6423571407795 58.561495393514633 315.55262798070908 203.80615431070328 42.621563822031021 511.46800124645233 65.773200809955597 56.031977534294128 106.38974192738533 37.559258490800858 28.084876030683517 25.711786091327667 14.465963095426558 23.151225924491882 16.074907660484314 46.936248540878296 46.474478989839554 81.547571033239365 25.841302484273911 41.635375738143921 112.22865095734596 24.719769597053528 41.199875384569168 51.697616040706635 6.6772285103797895 37.997953236103058 7.7022565901279449
leaf_count=242 927 50 399 501 178 897 562 128 1379 201 162 335 112 91 73 46 70 47 137 142 245 74 129 339 76 130 164 21 119 24
internal_value=5.20597e-05 0.00556125 0.00974479 0.0135154 -0.00955842 -0.00515271 0.00016725 -0.00209288 0.0182221 0.00117922 0.00505667 -0.0187498 0.00618778 -0.0167994 -0.017681 -0.00774137 -0.0140129 -0.011216 -0.00660704 -0.00773218 -0.0121416 -0.00296605 -0.0171358 -0.0167217 -0.0224762 -0.0228269 -0.0212159 -0.0235107 -0.0242204 -0.0163839
internal_weight=2776.38 1764.75 1505.65 1080.33 1011.64 628.954 425.321 505.495 694.11 381.326 386.217 259.098 241.365 382.684 123.459 40.1777 261.701 100.331 70.0875 183.956 124.169 41.9162 58.4147 191.614 83.2813 120.982 92.8975 158.767 144.388 14.3795
internal_count=8000 4983 4184 2969 3017 1844 1215 1471 1880 1098 1089 799 674 1173 373 119 788 300 207 541 373 121 179 581 254 385 294 499 454 45
is_linear=0
shrinkage=0.03


Tree=26
num_leaves=28
num_cat=0
split_feature=4 2 0 0 2 0 2 2 1 4 18 8 34 22 0 12 1 34 22 34 27 25 33 0 12 33 20
split_gain=576.025 263.878 56.6966 50.4668 49.2206 26.4243 16.8867 11.186 7.47405 6.39024 6.2751 6.55329 6.22082 5.91674 5.63034 4.79773 4.52528 4.32111 3.77696 3.77451 3.1991 3.03303 2.90159 2.53389 3.88496 2.43746 2.02502
threshold=8.5000000000000018 8.5000000000000018 1.5000000000000002 1.5000000000000002 8.5000000000000018 1.5000000000000002 7.5000000000000009 7.5000000000000009 2.5000000000000004 9.5000000000000018 1.5000000000000002 3.5000000000000004 1.7500000000000002 3.5000000000000004 2.5000000000000004 2.5000000000000004 3.5000000000000004 2.2500000000000004 2.5000000000000004 1.2500000000000002 1.5000000000000002 3.5000000000000004 1.3750000000000002 1.5000000000000002 3.5000000000000004 2.1250000000000004 2.5000000000000004
decision_type=2 2 2 2 2 2 2 2 2 2 2 2 2 2 2 2 2 2 2 2 2 2 2 2 2 2 2
left_child=1 2 7 10 5 18 12 13 14 25 20 -12 -4 -1 -5 -10 23 -8 -2 -9 -3 -20 -11 26 -25 -7 -6
right_child=4 3 6 8 16 9 17 19 15 22 11 -13 -14 -15 -16 -17 -18 -19 21 -21 -22 -23 -24 24 -26 -27 -28
leaf_value=-0.013749565055072367 0.013138656015010334 0.035795434616713064 -0.017066452844050589 0.0080306531322930502 0.036787598465610166 0.00096515209935403438 -0.0078894536423281467 0.014222217887702008 -6.1382178361273738e-05 0.0043369995033779377 0.0045961268192349063 0.021204835760364662 -0.022409368373400403 -0.0032735315702326637 -0.0079105914003452585 -0.015130703197569576 0.016781567469716485 -0.015673854850860515 0.029027345067300807 0.0014172029733958134 0.022081045966937045 0.047232852419662935 0.022926803498494092 0.036862634535364584 0.020356993262875971 -0.018098339133403772 0.043211823207307092
leaf_weight=75.24326229095459 11.867929548025129 34.722686678171158 373.17236936092377 182.42435857653618 79.163401901721954 43.279390692710876 155.01050531864166 29.392322689294815 85.850219190120697 12.549544930458071 25.604003131389618 129.63597086071968 413.38432230055332 136.62441152334213 22.387455224990845 24.424517124891281 9.1589893996715528 109.52363464236259 63.564953774213791 70.198874861001968 27.377914667129517 9.4619136452674848 18.993392437696457 89.104756623506546 14.993658542633055 7.0147220790386191 99.872339099645615
leaf_count=271 36 102 1394 587 220 146 552 93 287 39 79 388 1580 468 80 83 26 391 184 234 81 27 59 250 43 25 275
internal_value=-3.61476e-05 -0.00734005 -0.0143381 0.0105688 0.0301163 0.0171093 -0.0176693 -0.00309606 0.0028978 0.00494521 0.0216896 0.0184655 -0.0198745 -0.00699402 0.00628816 -0.00339905 0.0375358 -0.0111124 0.0288353 0.00519634 0.0297493 0.0313862 0.0155307 0.0382072 0.0344853 -0.00169371 0.0403713
internal_weight=2354 1894.98 1362.55 532.427 459.025 166.732 1051.09 311.459 315.087 81.8371 217.341 155.24 786.557 211.868 204.812 110.275 292.293 264.534 84.8948 99.5912 62.1006 73.0269 31.5429 283.134 104.098 50.2941 179.036
internal_count=8000 6670 4983 1687 1330 516 3917 1066 1037 269 650 467 2974 739 667 370 814 943 247 327 183 211 98 788 293 171 495
is_linear=0
shrinkage=0.03


Tree=27
num_leaves=31
num_cat=0
split_feature=4 2 2 0 0 0 4 0 0 8 2 2 2 12 4 37 32 26 26 22 34 4 5 6 5 21 10 14 4 4
split_gain=675.066 152.811 71.5072 69.11 27.0014 21.8964 18.948 18.6894 11.3771 9.38428 9.37505 8.73659 7.18776 6.78893 5.85388 5.63577 4.67403 4.61445 4.02169 3.86796 4.41619 3.78923 3.46297 3.80165 3.01681 2.91763 1.67533 1.62403 1.33225 1.26511
threshold=6.5000000000000009 6.5000000000000009 6.5000000000000009 2.5000000000000004 2.5000000000000004 2.5000000000000004 4.5000000000000009 2.5000000000000004 1.5000000000000002 3.5000000000000004 7.5000000000000009 7.5000000000000009 7.5000000000000009 3.5000000000000004 4.5000000000000009 2.1666666666666674 3.8750000000000004 2.5000000000000004 2.5000000000000004 3.5000000000000004 1.7500000000000002 7.5000000000000009 3.5000000000000004 2.5000000000000004 3.5000000000000004 2.5000000000000004 1.5000000000000002 4.5000000000000009 2.5000000000000004 7.5000000000000009
decision_type=2 2 2 2 2 2 2 2 2 2 2 2 2 2 2 2 2 2 2 2 2 2 2 2 2 2 2 2 2 2
left_child=1 4 7 6 8 12 10 15 9 -1 -3 -8 17 -10 26 18 -16 -4 -2 20 -9 -17 23 -7 -14 -24 -5 28 -6 -21
right_child=2 3 5 14 27 22 11 19 13 -11 -12 -13 24 -15 16 21 -18 -19 -20 29 -22 -23 25 -25 -26 -27 -28 -29 -30 -31
leaf_value=0.025895113748429475 -0.0098898351929234268 0.019049697793264871 -0.018094448926573914 0.024340613021976956 0.036908787982002873 0.0021411122504475977 0.0024336129280276573 -0.010487160773719046 0.023796753128227557 0.0071824572017243765 0.0038091908341092158 -0.0068501050494685373 -0.019048518374992284 0.012136322914688743 0.011113288991906289 0.019363570090280009 0.030875191196750241 -0.0037460225930475459 0.0011794326395793021 0.032988772304393961 0.020951512600676406 -0.0024294849674941616 0.014248573248109164 -0.02492749178064689 -0.023929970689977133 -0.0038354252336468926 0.033410091533398807 0.01884908823549326 0.031516625343662993 0.017690439032506666
leaf_weight=32.364601761102676 159.45209932327271 47.63276344537735 159.14869228005409 32.367230415344238 58.486087173223495 9.1640289127826708 135.73929250240326 7.4650263786315945 343.28250294923782 94.680271029472351 153.03256499767303 278.22848492860794 142.45774936676025 51.706885278224945 39.353275954723358 11.793022692203524 14.830921113491057 23.100187480449677 36.257269680500031 11.021682292222978 8.7168355286121351 18.358949065208435 15.012721151113508 9.5213586091995221 569.28015252947807 17.261609673500061 42.269324243068695 7.4606193602085105 139.8375571668148 8.7092800140380842
leaf_count=88 482 134 508 87 156 27 395 22 929 266 443 839 463 143 110 34 41 70 108 30 24 55 43 31 1889 52 113 20 374 24
internal_value=-2.61158e-05 0.0136149 -0.0166577 0.00404877 0.0233865 -0.0205014 -0.00013868 -0.00278268 0.0197586 0.0119495 0.00742689 -0.00380599 -0.0215917 0.0222703 0.0240281 -0.00597907 0.0165224 -0.0162758 -0.00783913 0.0173199 0.0064482 0.0060942 -0.00137399 -0.011652 -0.0229529 0.00457652 0.029477 0.0325899 0.0331068 0.0262361
internal_weight=2677.99 1471.27 1206.72 743.454 727.819 944.947 614.633 261.774 522.034 127.045 200.665 413.968 893.987 394.989 128.821 225.861 54.1842 182.249 195.709 35.9128 16.1819 30.152 50.9597 18.6854 711.738 32.2743 74.6366 205.784 198.324 19.731
internal_count=8000 4138 3862 2162 1976 3083 1811 779 1426 354 577 1234 2930 1072 351 679 151 578 590 100 46 89 153 58 2352 95 200 550 530 54
is_linear=0
shrinkage=0.03


Tree=28
num_leaves=31
num_cat=0
split_feature=4 4 2 2 2 4 0 2 0 0 0 2 4 0 34 0 18 0 6 4 34 7 22 32 18 4 21 36 21 21
split_gain=153.331 187.912 56.285 44.0946 34.3468 25.688 21.0038 17.7216 16.5909 15.0859 13.362 10.0763 8.94819 6.8749 6.3737 6.71213 5.69811 5.22908 4.92129 4.38436 3.96615 3.55525 2.60473 2.13527 1.28662 1.15856 0.973566 0.893712 1.97022 0.32556
threshold=5.5000000000000009 9.5000000000000018 8.5000000000000018 6.5000000000000009 5.5000000000000009 2.5000000000000004 1.5000000000000002 9.5000000000000018 1.5000000000000002 2.5000000000000004 2.5000000000000004 9.5000000000000018 8.5000000000000018 2.5000000000000004 1.7500000000000002 2.5000000000000004 2.5000000000000004 1.5000000000000002 2.5000000000000004 8.5000000000000018 2.2500000000000004 3.5000000000000004 3.5000000000000004 2.1250000000000004 1.5000000000000002 1.5000000000000002 3.5000000000000004 5.6250000000000009 2.5000000000000004 3.5000000000000004
decision_type=2 2 2 2 2 2 2 2 2 2 2 2 2 2 2 2 2 2 2 2 2 2 2 2 2 2 2 2 2 2
left_child=4 2 3 10 13 14 19 9 -5 -7 -2 17 -8 16 24 -16 23 22 -18 -4 -9 -19 -3 -1 -6 -15 -27 29 -29 -13
right_child=1 11 6 8 5 7 12 20 -10 -11 -12 27 -14 25 15 -17 18 21 -20 -21 -22 -23 -24 -25 -26 26 -28 28 -30 -31
leaf_value=-0.02578971015692615 0.0072248992014103154 -0.0067634821068015471 -0.0048014895416741005 0.0098182146034110594 -0.02931508810589372 0.0039259315913150548 0.0084490581148417704 -0.014179393640819661 0.020338483227463174 -0.011928023697658 -0.0086512977685860425 -0.028302557604958058 -0.0075225579031769222 -0.027788642334620247 0.0016718534369498678 -0.024008164400544346 -0.01773958297225247 -0.013952221064072469 -0.00077652841113213177 -0.015506694942956511 0.00063776369179420673 0.0040500661001413489 -0.020813979584134928 -0.015303495003897095 -0.020141644843707254 -0.022735834354847027 -0.015897103020743722 -0.016069572750804503 -0.024578919729035004 -0.02321631374705414
leaf_weight=19.472743421792984 330.69240820407867 16.697883814573288 137.14338928461075 183.0554783642292 17.468242406845093 315.7537467777729 204.32456424832344 104.16037422418594 513.00823929905891 65.166508942842484 55.755616068840027 31.399511486291885 37.339786320924759 27.533498048782349 25.69790855050087 14.234393328428267 22.930509358644485 15.978892832994459 46.825096547603607 45.974097460508347 19.26574969291687 25.838558256626129 41.10974058508873 170.49241906404495 64.82632851600647 65.149172067642212 26.29762589931488 37.800686091184616 69.537497222423553 17.716612875461578
leaf_count=61 927 50 399 501 54 897 562 316 1379 201 162 101 112 91 73 46 70 47 137 142 57 74 129 520 200 210 84 119 222 57
internal_value=6.16797e-05 0.00539224 0.00942883 0.0130603 -0.00928876 -0.0049777 0.00017435 -0.00198737 0.0175718 0.00121369 0.00493433 -0.0183673 0.00598127 -0.0164216 -0.0173167 -0.00748213 -0.0136857 -0.0109098 -0.00635273 -0.00748917 -0.0118666 -0.0028288 -0.0167555 -0.0163784 -0.0220888 -0.0223936 -0.0207692 -0.023116 -0.0215822 -0.0264679
internal_weight=2768.65 1763.37 1507.29 1082.51 1005.27 626.573 424.782 504.346 696.064 380.92 386.448 256.079 241.664 378.701 122.227 39.9323 259.721 99.6251 69.7556 183.117 123.426 41.8175 57.8076 189.965 82.2946 118.98 91.4468 156.454 107.338 49.1161
